{"learner":{"attributes":{"scikit_learn":"{\"_estimator_type\": \"classifier\"}"},"feature_names":["Gender","Married","Dependents","Education","Self_Employed","ApplicantIncome","CoapplicantIncome","LoanAmount","Loan_Amount_Term","Credit_History","Property_Area"],"feature_types":["float","float","float","float","float","float","float","float","float","float","float"],"gradient_booster":{"model":{"cats":{"enc":[],"feature_segments":[],"sorted_idx":[]},"gbtree_model_param":{"num_parallel_tree":"1","num_trees":"100"},"iteration_indptr":[0,1,2,3,4,5,6,7,8,9,10,11,12,13,14,15,16,17,18,19,20,21,22,23,24,25,26,27,28,29,30,31,32,33,34,35,36,37,38,39,40,41,42,43,44,45,46,47,48,49,50,51,52,53,54,55,56,57,58,59,60,61,62,63,64,65,66,67,68,69,70,71,72,73,74,75,76,77,78,79,80,81,82,83,84,85,86,87,88,89,90,91,92,93,94,95,96,97,98,99,100],"tree_info":[0,0,0,0,0,0,0,0,0,0,0,0,0,0,0,0,0,0,0,0,0,0,0,0,0,0,0,0,0,0,0,0,0,0,0,0,0,0,0,0,0,0,0,0,0,0,0,0,0,0,0,0,0,0,0,0,0,0,0,0,0,0,0,0,0,0,0,0,0,0,0,0,0,0,0,0,0,0,0,0,0,0,0,0,0,0,0,0,0,0,0,0,0,0,0,0,0,0,0,0],"trees":[{"base_weights":[-9.604039E-8,-5.6625557E-1,7.439953E-1,2.2026421E-1,1.0777459E0,6.087322E-1,-5.301713E-1,1.1791805E0,-4.91595E-1,6.7748225E-1,-2.101352E-1,7.3309255E-1,1.3571235E0,-3.1222388E-1,1.09227456E-1,-1.3677032E-1,8.143872E-1,1.0166422E0,-3.9353326E-1,1.4142832E0,-7.6734774E-2,2.1160384E-1,-3.9353326E-1,-5.3274333E-2,2.7720925E-1,-7.6734774E-2,3.3961344E-1,5.126505E-1,3.062126E-1],"categories":[],"categories_nodes":[],"categories_segments":[],"categories_sizes":[],"default_left":[0,0,0,0,0,0,0,0,0,0,0,0,0,0,0,0,0,0,0,0,0,0,0,0,0,0,0,0,0],"id":0,"left_children":[1,-1,3,5,7,9,-1,11,13,15,-1,17,19,-1,-1,21,23,25,-1,27,-1,-1,-1,-1,-1,-1,-1,-1,-1],"loss_changes":[2.0098709E2,0E0,1.7706745E1,3.289597E1,1.0519913E1,3.6444778E0,0E0,3.6842422E0,2.4919934E0,3.8982105E0,0E0,1.2340782E1,4.1383286E0,0E0,0E0,6.610586E0,3.3426266E0,2.820406E0,0E0,2.8598557E0,0E0,0E0,0E0,0E0,0E0,0E0,0E0,0E0,0E0],"parents":[2147483647,0,0,2,2,3,3,4,4,5,5,7,7,8,8,9,9,11,11,12,12,15,15,16,16,17,17,19,19],"right_children":[2,-1,4,6,8,10,-1,12,14,16,-1,18,20,-1,-1,22,24,26,-1,28,-1,-1,-1,-1,-1,-1,-1,-1,-1],"split_conditions":[5.6526715E-1,-5.6625557E-1,7.771808E-1,-1.3733363E0,2.0076354E0,4.5847884E-1,-5.301713E-1,-9.9652976E-2,1.4456217E-1,-5.028344E-1,-2.101352E-1,-1.3279047E0,1.3837769E0,-3.1222388E-1,1.09227456E-1,-5.155152E-1,-2.0343365E-1,-7.744398E-1,-3.9353326E-1,-1.9439498E-1,-7.6734774E-2,2.1160384E-1,-3.9353326E-1,-5.3274333E-2,2.7720925E-1,-7.6734774E-2,3.3961344E-1,5.126505E-1,3.062126E-1],"split_indices":[9,0,1,1,5,8,0,10,2,5,0,10,6,0,0,5,8,7,0,5,0,0,0,0,0,0,0,0,0],"split_type":[0,0,0,0,0,0,0,0,0,0,0,0,0,0,0,0,0,0,0,0,0,0,0,0,0,0,0,0,0],"sum_hessian":[1.4112212E2,3.946424E1,1.0165788E2,4.0213562E1,6.144432E1,3.4218994E1,5.994568E0,5.794749E1,3.4968314E0,3.2970123E1,1.2488683E0,1.7983704E1,3.9963787E1,1.9981893E0,1.498642E0,4.7457E0,2.8224424E1,1.6235289E1,1.7484157E0,3.871492E1,1.2488683E0,2.997284E0,1.7484157E0,2.7475104E0,2.5476913E1,1.2488683E0,1.498642E1,2.0231667E1,1.8483252E1],"tree_param":{"num_deleted":"0","num_feature":"11","num_nodes":"29","size_leaf_vector":"1"}},{"base_weights":[-5.8378717E-3,-1.4294496E0,5.431075E-1,-1.4510348E0,-1.21557295E-1,1.4165445E-1,8.0396533E-1,-4.422113E-1,-1.21557295E-1,4.331469E-1,-4.1453096E-1,8.846274E-1,-3.9304093E-1,4.8893443E-1,-1.75603E-1,5.27002E-1,1.0310633E0,-2.5250447E-1,8.9962125E-2,5.90134E-1,-3.5705325E-1,7.561559E-1,-3.2439357E-1,2.9848635E-1,1.1550751E0,1.1767741E-1,3.014149E-1,1.4317386E-3,-1.8323363E-1,-6.391259E-2,2.545668E-1,2.5638676E-1,-1.5951292E-1,3.658223E-1,-4.3776343E-3],"categories":[],"categories_nodes":[],"categories_segments":[],"categories_sizes":[],"default_left":[0,0,0,0,0,0,0,0,0,0,0,0,0,0,0,0,0,0,0,0,0,0,0,0,0,0,0,0,0,0,0,0,0,0,0],"id":1,"left_children":[1,3,5,7,-1,9,11,-1,-1,13,-1,15,17,19,-1,21,23,-1,-1,25,27,29,-1,31,33,-1,-1,-1,-1,-1,-1,-1,-1,-1,-1],"loss_changes":[1.06924225E2,2.5385284E-1,1.0227768E1,2.9049683E-1,0E0,1.8409504E1,6.1065445E0,0E0,0E0,2.2423792E0,0E0,2.3990707E0,1.638212E0,3.051824E0,0E0,7.5873303E0,3.1817894E0,0E0,0E0,2.0683384E0,3.8561374E-1,1.6732931E0,0E0,3.6716993E0,2.4896622E0,0E0,0E0,0E0,0E0,0E0,0E0,0E0,0E0,0E0,0E0],"parents":[2147483647,0,0,1,1,2,2,3,3,5,5,6,6,9,9,11,11,12,12,13,13,15,15,16,16,19,19,20,20,21,21,23,23,24,24],"right_children":[2,4,6,8,-1,10,12,-1,-1,14,-1,16,18,20,-1,22,24,-1,-1,26,28,30,-1,32,34,-1,-1,-1,-1,-1,-1,-1,-1,-1,-1],"split_conditions":[5.6526715E-1,2.2927418E0,7.771808E-1,1.5694096E0,-1.21557295E-1,-1.3733363E0,2.0076354E0,-4.422113E-1,-1.21557295E-1,4.5847884E-1,-4.1453096E-1,-9.9652976E-2,1.4456217E-1,4.757885E-1,-1.75603E-1,-1.3279047E0,4.210272E-3,-2.5250447E-1,8.9962125E-2,-1.0432817E-1,5.336562E-1,-7.744398E-1,-3.2439357E-1,-2.5232534E0,1.3960192E0,1.1767741E-1,3.014149E-1,1.4317386E-3,-1.8323363E-1,-6.391259E-2,2.545668E-1,2.5638676E-1,-1.5951292E-1,3.658223E-1,-4.3776343E-3],"split_indices":[9,2,1,6,0,1,5,0,0,8,0,10,2,7,0,10,8,0,0,6,5,7,0,8,7,0,0,0,0,0,0,0,0,0,0],"split_type":[0,0,0,0,0,0,0,0,0,0,0,0,0,0,0,0,0,0,0,0,0,0,0,0,0,0,0,0,0,0,0,0,0,0,0],"sum_hessian":[1.3482841E2,3.7075195E1,9.775323E1,3.5901928E1,1.1732657E0,3.910883E1,5.8644394E1,3.4728664E1,1.1732657E0,3.342832E1,5.6805096E0,5.5186535E1,3.4578612E0,3.218532E1,1.2430005E0,1.7368378E1,3.7818157E1,1.9685739E0,1.4892873E0,2.901669E1,3.1686313E0,1.5666103E1,1.7022738E0,5.9683213E0,3.1849834E1,2.0959215E1,8.057473E0,1.7105248E0,1.4581065E0,1.2499146E0,1.4416188E1,3.5564713E0,2.4118502E0,3.0149092E1,1.7007428E0],"tree_param":{"num_deleted":"0","num_feature":"11","num_nodes":"35","size_leaf_vector":"1"}},{"base_weights":[-1.4650891E-2,-1.2042323E0,4.1049743E-1,-1.2238436E0,-1.0403862E-1,9.289745E-2,6.2540287E-1,-1.1889094E-1,-1.2490648E0,3.1569034E-1,-3.5280427E-1,6.9307333E-1,-3.21324E-1,-3.816316E-1,-1.0403862E-1,-2.7973673E-1,4.1879952E-1,3.7049347E-1,8.514134E-1,-2.0971373E-1,7.431239E-2,4.110108E-1,-3.4332627E-1,3.577319E-1,2.9701045E-1,-2.0231006E-3,3.7978572E-1,9.0644383E-1,-1.15754806E-1,2.6553658E-1,-4.1105032E-2,-1.894842E-1,1.3455524E-1,1.4203699E-1,-1.7634992E-1,5.4428447E-2,2.9330415E-1],"categories":[],"categories_nodes":[],"categories_segments":[],"categories_sizes":[],"default_left":[0,0,0,0,0,0,0,0,0,0,0,0,0,0,0,0,0,0,0,0,0,0,0,0,0,0,0,0,0,0,0,0,0,0,0,0,0],"id":2,"left_children":[1,3,5,7,-1,9,11,-1,13,15,-1,17,19,-1,-1,21,23,25,27,-1,-1,29,-1,-1,31,33,-1,35,-1,-1,-1,-1,-1,-1,-1,-1,-1],"loss_changes":[6.3501427E1,1.3142395E-1,6.2571697E0,1.7124557E-1,0E0,1.1259778E1,3.7469673E0,0E0,1.931572E-1,2.1770117E0,0E0,2.3230839E0,1.1087711E0,0E0,0E0,3.7864509E0,2.37819E0,6.2665014E0,2.6564846E0,0E0,0E0,1.1143771E0,0E0,0E0,3.9957433E0,4.2502646E0,0E0,1.5133114E0,0E0,0E0,0E0,0E0,0E0,0E0,0E0,0E0,0E0],"parents":[2147483647,0,0,1,1,2,2,3,3,5,5,6,6,8,8,9,9,11,11,12,12,15,15,16,16,17,17,18,18,21,21,24,24,25,25,27,27],"right_children":[2,4,6,8,-1,10,12,-1,14,16,-1,18,20,-1,-1,22,24,26,28,-1,-1,30,-1,-1,32,34,-1,36,-1,-1,-1,-1,-1,-1,-1,-1,-1],"split_conditions":[5.6526715E-1,2.2927418E0,7.771808E-1,-2.5232534E0,-1.0403862E-1,-1.3733363E0,2.0076354E0,-1.1889094E-1,1.2366909E0,-5.028344E-1,-3.5280427E-1,-4.7998932E-1,1.4456217E-1,-3.816316E-1,-1.0403862E-1,-5.155152E-1,-1.0300436E0,5.169709E-1,6.489516E-1,-2.0971373E-1,7.431239E-2,-9.2248416E-1,-3.4332627E-1,3.577319E-1,-7.744398E-1,-2.0794556E-1,3.7978572E-1,-1.1368679E0,-1.15754806E-1,2.6553658E-1,-4.1105032E-2,-1.894842E-1,1.3455524E-1,1.4203699E-1,-1.7634992E-1,5.4428447E-2,2.9330415E-1],"split_indices":[9,2,1,8,0,1,5,0,6,5,0,6,2,0,0,5,7,5,5,0,0,7,0,0,7,7,0,8,0,0,0,0,0,0,0,0,0],"split_type":[0,0,0,0,0,0,0,0,0,0,0,0,0,0,0,0,0,0,0,0,0,0,0,0,0,0,0,0,0,0,0,0,0,0,0,0,0],"sum_hessian":[1.23581856E2,3.205585E1,9.152601E1,3.0921293E1,1.1345574E0,3.751556E1,5.4010445E1,1.4088321E0,2.951246E1,3.2551456E1,4.9641056E0,5.0657463E1,3.3529847E0,2.8377903E1,1.1345574E0,4.5519853E0,2.799947E1,1.7778301E1,3.287916E1,1.8779346E0,1.4750501E0,2.8221765E0,1.7298087E0,2.6125786E0,2.5386892E1,1.3259857E1,4.518444E0,3.1735043E1,1.1441175E0,1.1833386E0,1.6388379E0,3.116459E0,2.2270433E1,7.4250317E0,5.834825E0,3.1564898E0,2.8578552E1],"tree_param":{"num_deleted":"0","num_feature":"11","num_nodes":"37","size_leaf_vector":"1"}},{"base_weights":[-1.857846E-2,-1.0604318E0,3.164171E-1,-1.0805669E0,-8.931072E-2,1.8403131E-1,7.36436E-1,-1.0178956E-1,-1.1060911E0,4.5623827E-1,-4.3426338E-1,3.2258596E-2,9.230076E-1,-3.390887E-1,-8.931072E-2,5.9944874E-1,-7.1046686E-1,-7.9289126E-1,6.715664E-1,4.9912152E-1,-1.958661E-1,1.0387039E0,-7.590814E-2,6.50032E-1,-1.8561243E-1,-3.4798485E-1,-2.1000709E-1,-4.3087053E-1,-3.918207E-1,3.191383E-1,-6.17189E-3,-1.5716427E-3,2.3119707E-1,3.1741828E-1,3.3865353E-1,1.2503205E-1,2.5976634E-1,-2.608052E-1,1.7128675E-1,-2.7387101E-2,-3.4242046E-1,2.3157363E-1,-9.14546E-2],"categories":[],"categories_nodes":[],"categories_segments":[],"categories_sizes":[],"default_left":[0,0,0,0,0,0,0,0,0,0,0,0,0,0,0,0,0,0,0,0,0,0,0,0,0,0,0,0,0,0,0,0,0,0,0,0,0,0,0,0,0,0,0],"id":3,"left_children":[1,3,5,7,-1,9,11,-1,13,15,17,19,21,-1,-1,23,25,27,29,31,-1,33,-1,35,-1,-1,37,-1,39,-1,-1,-1,-1,41,-1,-1,-1,-1,-1,-1,-1,-1,-1],"loss_changes":[3.995683E1,1.0603142E-1,4.68384E0,1.3089943E-1,0E0,1.151389E1,2.6553812E0,0E0,1.6091347E-1,8.307211E0,8.886196E0,2.026641E0,2.4562979E0,0E0,0E0,3.024356E0,1.0193934E0,3.6597223E0,1.5692515E0,5.147329E-1,0E0,6.086941E-1,0E0,1.7209072E0,0E0,0E0,2.493088E0,0E0,2.4763906E0,0E0,0E0,0E0,0E0,1.0960481E0,0E0,0E0,0E0,0E0,0E0,0E0,0E0,0E0,0E0],"parents":[2147483647,0,0,1,1,2,2,3,3,5,5,6,6,8,8,9,9,10,10,11,11,12,12,15,15,16,16,17,17,18,18,19,19,21,21,23,23,26,26,28,28,33,33],"right_children":[2,4,6,8,-1,10,12,-1,14,16,18,20,22,-1,-1,24,26,28,30,32,-1,34,-1,36,-1,-1,38,-1,40,-1,-1,-1,-1,42,-1,-1,-1,-1,-1,-1,-1,-1,-1],"split_conditions":[5.6526715E-1,2.2927418E0,1.2776129E0,-2.5232534E0,-8.931072E-2,-7.5614387E-1,-1.817256E0,-1.0178956E-1,1.2366909E0,8.7740314E-1,1.2563008E0,-2.6155526E-2,-4.9062297E-1,-3.390887E-1,-8.931072E-2,4.5847884E-1,-7.5199395E-1,2.313134E-1,-1.4566602E-1,-4.7998932E-1,-1.958661E-1,-5.655099E-1,-7.590814E-2,-4.7998932E-1,-1.8561243E-1,-3.4798485E-1,4.72588E-1,-4.3087053E-1,2.5914532E-1,3.191383E-1,-6.17189E-3,-1.5716427E-3,2.3119707E-1,-6.703264E-1,3.3865353E-1,1.2503205E-1,2.5976634E-1,-2.608052E-1,1.7128675E-1,-2.7387101E-2,-3.4242046E-1,2.3157363E-1,-9.14546E-2],"split_indices":[9,2,2,8,0,2,3,0,6,7,10,7,0,0,0,8,10,2,7,6,0,7,0,6,0,0,5,0,2,0,0,0,0,7,0,0,0,0,0,0,0,0,0],"split_type":[0,0,0,0,0,0,0,0,0,0,0,0,0,0,0,0,0,0,0,0,0,0,0,0,0,0,0,0,0,0,0,0,0,0,0,0,0,0,0,0,0,0,0],"sum_hessian":[1.12522766E2,2.685058E1,8.567219E1,2.5754E1,1.0965798E0,6.623403E1,1.943816E1,1.3330536E0,2.4420946E1,4.6169712E1,2.0064318E1,4.317085E0,1.5121076E1,2.3324366E1,1.0965798E0,4.155512E1,4.6145945E0,1.5364499E1,4.6998186E0,2.729021E0,1.5880637E0,1.3873044E1,1.2480315E0,4.034615E1,1.2089702E0,1.736873E0,2.8777213E0,4.9090514E0,1.0455447E1,2.6571023E0,2.042716E0,1.2982702E0,1.4307508E0,2.0434291E0,1.1829615E1,2.0800001E1,1.9546146E1,1.4989907E0,1.3787307E0,8.263957E0,2.1914902E0,1.0419338E0,1.0014954E0],"tree_param":{"num_deleted":"0","num_feature":"11","num_nodes":"43","size_leaf_vector":"1"}},{"base_weights":[-2.5805755E-2,-9.513724E-1,2.4034916E-1,-9.73125E-1,-7.682705E-2,-6.263796E-3,4.1790324E-1,-9.9706745E-1,-7.682705E-2,1.3318591E-1,-2.8858152E-1,7.026049E-1,1.882684E-1,-8.7288186E-2,-3.082505E-1,-6.735168E-2,4.636533E-1,1.8586572E-1,9.11405E-1,-6.9055194E-1,3.666929E-1,1.3781342E-1,-4.0232676E-1,8.1095815E-1,-2.9769757E-1,-4.799281E-1,2.5470084E-1,1.025042E0,1.6230527E-1,-3.791139E-1,-1.8001254E-1,7.0007585E-2,9.300535E-1,9.9026985E-2,-1.7361525E-1,2.821585E-1,-2.6061872E-3,-1.8877189E-1,1.09237865E-1,-2.5471014E-1,-1.7781697E-2,3.3905047E-1,1.5915877E-1,1.0083185E-1,-2.8214244E-2,9.1416046E-2,-1.553646E-1,1.3391215E-1,-1.767316E-1,2.3179185E-2,3.4117055E-1],"categories":[],"categories_nodes":[],"categories_segments":[],"categories_sizes":[],"default_left":[0,0,0,0,0,0,0,0,0,0,0,0,0,0,0,0,0,0,0,0,0,0,0,0,0,0,0,0,0,0,0,0,0,0,0,0,0,0,0,0,0,0,0,0,0,0,0,0,0,0,0],"id":4,"left_children":[1,3,5,7,-1,9,11,13,-1,15,-1,17,19,-1,-1,21,23,25,27,29,31,33,-1,35,37,39,-1,41,43,-1,45,47,49,-1,-1,-1,-1,-1,-1,-1,-1,-1,-1,-1,-1,-1,-1,-1,-1,-1,-1],"loss_changes":[2.5596004E1,1.0167122E-1,3.5395432E0,1.2473297E-1,0E0,4.7655153E0,2.939024E0,1.5399551E-1,0E0,2.1018558E0,0E0,2.054123E0,4.544902E0,0E0,0E0,5.4944906E0,3.3950734E0,3.5805745E0,1.061244E0,1.2256377E0,3.8466523E0,2.7268982E0,0E0,9.065232E-1,1.2094357E0,6.056974E-1,0E0,4.1589737E-2,1.691781E-1,0E0,7.7893513E-1,4.3342137E0,1.3242059E0,0E0,0E0,0E0,0E0,0E0,0E0,0E0,0E0,0E0,0E0,0E0,0E0,0E0,0E0,0E0,0E0,0E0,0E0],"parents":[2147483647,0,0,1,1,2,2,3,3,5,5,6,6,7,7,9,9,11,11,12,12,15,15,16,16,17,17,18,18,19,19,20,20,21,21,23,23,24,24,25,25,27,27,28,28,30,30,31,31,32,32],"right_children":[2,4,6,8,-1,10,12,14,-1,16,-1,18,20,-1,-1,22,24,26,28,30,32,34,-1,36,38,40,-1,42,44,-1,46,48,50,-1,-1,-1,-1,-1,-1,-1,-1,-1,-1,-1,-1,-1,-1,-1,-1,-1,-1],"split_conditions":[5.6526715E-1,2.2927418E0,7.771808E-1,1.5694096E0,-7.682705E-2,-1.3733363E0,-1.9627441E-1,-2.5232534E0,-7.682705E-2,1.8814616E0,-2.8858152E-1,-5.3527457E-1,4.1601852E-1,-8.7288186E-2,-3.082505E-1,-4.9062297E-1,-7.5614387E-1,-2.9263563E-2,2.6930422E-1,-4.7998932E-1,4.0466943E-1,2.8904974E-1,-4.0232676E-1,-2.7076784E-1,-1.420983E-1,-3.1448916E-1,2.5470084E-1,-1.6695939E-1,-4.0689394E-1,-3.791139E-1,-2.889512E-3,8.7740314E-1,2.8597537E-2,9.9026985E-2,-1.7361525E-1,2.821585E-1,-2.6061872E-3,-1.8877189E-1,1.09237865E-1,-2.5471014E-1,-1.7781697E-2,3.3905047E-1,1.5915877E-1,1.0083185E-1,-2.8214244E-2,9.1416046E-2,-1.553646E-1,1.3391215E-1,-1.767316E-1,2.3179185E-2,3.4117055E-1],"split_indices":[9,2,1,6,0,1,7,8,0,0,0,10,3,0,0,0,2,6,6,6,2,5,0,7,5,5,0,5,5,0,6,7,7,0,0,0,0,0,0,0,0,0,0,0,0,0,0,0,0,0,0],"split_type":[0,0,0,0,0,0,0,0,0,0,0,0,0,0,0,0,0,0,0,0,0,0,0,0,0,0,0,0,0,0,0,0,0,0,0,0,0,0,0,0,0,0,0,0,0,0,0,0,0,0,0],"sum_hessian":[1.0197525E2,2.2199814E1,7.977544E1,2.1138851E1,1.0609624E0,3.37974E1,4.597803E1,2.0077888E1,1.0609624E0,3.0244793E1,3.55261E0,1.9608152E1,2.6369879E1,1.2659806E0,1.8811907E1,1.931815E1,1.0926643E1,6.186917E0,1.3421235E1,3.965879E0,2.2404E1,1.740627E1,1.9118812E0,7.4589453E0,3.467698E0,3.2251358E0,2.9617808E0,1.1333587E1,2.0876493E0,1.1733537E0,2.7925253E0,1.541185E1,6.9921494E0,1.414884E1,3.2574291E0,6.3134317E0,1.1455135E0,2.343134E0,1.124564E0,1.175411E0,2.0497248E0,8.286569E0,3.047018E0,1.0587409E0,1.0289085E0,1.1872792E0,1.6052462E0,1.0015545E1,5.396304E0,1.6350359E0,5.3571134E0],"tree_param":{"num_deleted":"0","num_feature":"11","num_nodes":"51","size_leaf_vector":"1"}},{"base_weights":[-2.7376633E-2,-8.586035E-1,1.858929E-1,-3.8173312E-1,-9.2310053E-1,-8.411052E-2,3.1623602E-1,7.3585056E-2,-2.2025125E-1,-3.1731564E-1,-5.3373545E-1,1.2563963E-1,-3.35672E-1,6.0782886E-1,2.7494889E-2,1.6143766E-1,-2.8773975E-1,-8.828191E-2,6.242271E-1,8.83918E-1,1.4677104E-1,-3.7071145E-1,3.4633696E-1,4.7377817E-2,-2.7073133E-1,-5.832551E-2,9.0913075E-1,-2.6300175E-3,9.9161166E-1,-2.3602179E-1,6.5332097E-1,7.05387E-3,7.632161E-1,-7.679484E-2,1.7327097E-1,3.116767E-1,5.9353385E-2,3.3846357E-1,1.4950508E-1,-1.5187699E-1,1.3324426E-1,2.4221101E-1,2.9036013E-2,-1.488246E-1,1.6414791E-1,-4.643951E-2,2.9387853E-1],"categories":[],"categories_nodes":[],"categories_segments":[],"categories_sizes":[],"default_left":[0,0,0,0,0,0,0,0,0,0,0,0,0,0,0,0,0,0,0,0,0,0,0,0,0,0,0,0,0,0,0,0,0,0,0,0,0,0,0,0,0,0,0,0,0,0,0],"id":5,"left_children":[1,3,5,7,9,11,13,-1,-1,-1,15,17,-1,19,21,-1,-1,23,25,27,29,-1,31,33,-1,-1,35,-1,37,39,41,43,45,-1,-1,-1,-1,-1,-1,-1,-1,-1,-1,-1,-1,-1,-1],"loss_changes":[1.6784657E1,2.4204254E-1,2.682072E0,1.0657053E0,2.9082394E-1,5.644069E0,4.285506E0,0E0,0E0,0E0,3.3482118E0,2.3996437E0,0E0,3.1004877E0,1.1190597E1,0E0,0E0,1.8384287E0,1.7449343E0,1.5154209E0,2.2296395E0,0E0,3.1229384E0,2.542117E0,0E0,0E0,2.711854E-1,0E0,3.8068867E-1,1.4804399E0,3.3958507E-1,3.8593051E0,2.1210775E0,0E0,0E0,0E0,0E0,0E0,0E0,0E0,0E0,0E0,0E0,0E0,0E0,0E0,0E0],"parents":[2147483647,0,0,1,1,2,2,3,3,4,4,5,5,6,6,10,10,11,11,13,13,14,14,17,17,18,18,19,19,20,20,22,22,23,23,26,26,28,28,29,29,30,30,31,31,32,32],"right_children":[2,4,6,8,10,12,14,-1,-1,-1,16,18,-1,20,22,-1,-1,24,26,28,30,-1,32,34,-1,-1,36,-1,38,40,42,44,46,-1,-1,-1,-1,-1,-1,-1,-1,-1,-1,-1,-1,-1,-1],"split_conditions":[5.6526715E-1,-4.9787524E-1,-9.9652976E-2,2.8252605E-2,1.4115915E-1,-1.3279047E0,2.8252605E-2,7.3585056E-2,-2.2025125E-1,-3.1731564E-1,2.2683619E-1,2.5914532E-1,-3.35672E-1,-2.6155526E-2,1.2847801E0,1.6143766E-1,-2.8773975E-1,1.5376104E0,-1.817256E0,-4.605666E-1,6.192011E-1,-3.7071145E-1,-4.7998932E-1,-1.1603433E-1,-2.7073133E-1,-5.832551E-2,1.5382138E0,-2.6300175E-3,-4.9062297E-1,-3.9563236E-1,8.256489E-1,-3.0473666E-2,-2.5232534E0,-7.679484E-2,1.7327097E-1,3.116767E-1,5.9353385E-2,3.3846357E-1,1.4950508E-1,-1.5187699E-1,1.3324426E-1,2.4221101E-1,2.9036013E-2,-1.488246E-1,1.6414791E-1,-4.643951E-2,2.9387853E-1],"split_indices":[9,5,10,10,7,10,10,0,0,0,7,2,0,7,10,0,0,5,3,8,7,0,6,7,0,0,7,0,0,4,5,5,8,0,0,0,0,0,0,0,0,0,0,0,0,0,0],"split_type":[0,0,0,0,0,0,0,0,0,0,0,0,0,0,0,0,0,0,0,0,0,0,0,0,0,0,0,0,0,0,0,0,0,0,0,0,0,0,0,0,0,0,0,0,0,0,0],"sum_hessian":[9.278093E1,1.8326546E1,7.4454384E1,3.00764E0,1.5318907E1,2.4356022E1,5.009836E1,1.1916428E0,1.815997E0,1.0107753E1,5.211154E0,2.0981682E1,3.3743405E0,2.4376257E1,2.5722103E1,1.4052894E0,3.8058646E0,1.5258066E1,5.7236156E0,1.46727915E1,9.703465E0,4.604446E0,2.1117657E1,1.3886086E1,1.3719791E0,1.5596626E0,4.1639533E0,1.6784586E0,1.2994333E1,5.831068E0,3.872398E0,1.2202994E1,8.914662E0,9.161391E0,4.724695E0,3.1318464E0,1.0321069E0,9.168128E0,3.8262045E0,4.356069E0,1.4749987E0,2.6798918E0,1.192506E0,6.359918E0,5.8430758E0,1.754705E0,7.1599574E0],"tree_param":{"num_deleted":"0","num_feature":"11","num_nodes":"47","size_leaf_vector":"1"}},{"base_weights":[-2.32396E-2,-7.751832E-1,1.5247187E-1,-5.4889274E-1,-2.9318035E-1,8.606672E-2,5.916897E-1,-7.800191E-1,-1.6214597E-1,3.1541345E-1,-1.5438087E-1,-9.1196336E-2,3.3122516E-1,-3.4081373E-2,-2.6872328E-1,5.096858E-1,-2.3675628E-1,1.48484E-1,6.516706E-1,-2.762972E-1,3.4863058E-1,1.99865E-1,-5.076423E-1,2.6814705E-1,-3.6800098E-2,-3.5996366E-1,3.9348376E-1,8.3073753E-1,-1.0868768E-1,-6.9842744E-1,-1.2053507E-1,6.4850867E-1,-1.5914306E-1,-2.5041738E-1,5.1283393E-2,-2.3745133E-1,3.0226955E-2,2.0096524E-1,3.0163392E-2,2.904034E-1,1.87026E-2,-3.7039706E-1,1.3706273E-1,2.157081E-2,-3.0490607E-1,-1.798187E-2,2.5425783E-1],"categories":[],"categories_nodes":[],"categories_segments":[],"categories_sizes":[],"default_left":[0,0,0,0,0,0,0,0,0,0,0,0,0,0,0,0,0,0,0,0,0,0,0,0,0,0,0,0,0,0,0,0,0,0,0,0,0,0,0,0,0,0,0,0,0,0,0],"id":6,"left_children":[1,3,5,7,-1,9,11,13,15,17,19,21,-1,-1,-1,23,-1,25,27,29,31,-1,33,-1,-1,35,37,39,-1,41,43,45,-1,-1,-1,-1,-1,-1,-1,-1,-1,-1,-1,-1,-1,-1,-1],"loss_changes":[1.1437232E1,2.1315765E-1,1.9988185E0,7.6863885E-1,0E0,3.4797683E0,3.2706997E0,3.6139655E-1,2.5120673E0,1.7091336E0,2.000193E0,1.8545506E0,0E0,0E0,0E0,8.44542E-1,0E0,2.9811673E0,2.185285E0,1.5955563E0,2.0572464E0,0E0,9.571345E-1,0E0,0E0,1.6572709E0,1.2168286E0,9.0206146E-1,0E0,4.70062E0,3.4983702E0,7.9746056E-1,0E0,0E0,0E0,0E0,0E0,0E0,0E0,0E0,0E0,0E0,0E0,0E0,0E0,0E0,0E0],"parents":[2147483647,0,0,1,1,2,2,3,3,5,5,6,6,7,7,8,8,9,9,10,10,11,11,15,15,17,17,18,18,19,19,20,20,22,22,25,25,26,26,27,27,29,29,30,30,31,31],"right_children":[2,4,6,8,-1,10,12,14,16,18,20,22,-1,-1,-1,24,-1,26,28,30,32,-1,34,-1,-1,36,38,40,-1,42,44,46,-1,-1,-1,-1,-1,-1,-1,-1,-1,-1,-1,-1,-1,-1,-1],"split_conditions":[5.6526715E-1,-1.9385697E0,2.5488582E0,-1.3371496E-1,-2.9318035E-1,-1.9272353E-1,9.967164E-2,-6.703264E-1,-1.2787253E-2,-2.9263563E-2,4.7488657E-1,-4.8126745E-1,3.3122516E-1,-3.4081373E-2,-2.6872328E-1,2.4597332E-1,-2.3675628E-1,-1.12316966E-1,-1.9735989E-1,-3.283062E-1,1.696746E0,1.99865E-1,-1.1974E-1,2.6814705E-1,-3.6800098E-2,-3.116209E-1,2.8252605E-2,3.9783308E-1,-1.0868768E-1,2.0303096E-1,1.5400228E-1,2.1648668E-2,-1.5914306E-1,-2.5041738E-1,5.1283393E-2,-2.3745133E-1,3.0226955E-2,2.0096524E-1,3.0163392E-2,2.904034E-1,1.87026E-2,-3.7039706E-1,1.3706273E-1,2.157081E-2,-3.0490607E-1,-1.798187E-2,2.5425783E-1],"split_indices":[9,9,4,7,0,7,5,7,5,6,6,5,0,0,0,6,0,10,5,5,7,0,5,0,0,5,10,6,0,6,6,7,0,0,0,0,0,0,0,0,0,0,0,0,0,0,0],"split_type":[0,0,0,0,0,0,0,0,0,0,0,0,0,0,0,0,0,0,0,0,0,0,0,0,0,0,0,0,0,0,0,0,0,0,0,0,0,0,0,0,0,0,0,0,0,0,0],"sum_hessian":[8.466908E1,1.5391343E1,6.927774E1,9.013899E0,6.377444E0,6.1218155E1,8.059589E0,5.0055966E0,4.008302E0,3.1172773E1,3.004538E1,3.8073783E0,4.2522116E0,1.0338348E0,3.971762E0,2.025392E0,1.98291E0,2.1794716E1,9.3780575E0,2.4546652E1,5.4987283E0,1.1379534E0,2.669425E0,1.0027558E0,1.0226362E0,6.9344406E0,1.4860275E1,8.124044E0,1.2540132E0,5.6771355E0,1.8869516E1,4.2957034E0,1.2030252E0,1.645968E0,1.0234569E0,3.2098823E0,3.7245584E0,6.983903E0,7.876373E0,6.672263E0,1.4517812E0,3.8305256E0,1.8466098E0,1.6289892E1,2.579624E0,1.0953556E0,3.2003477E0],"tree_param":{"num_deleted":"0","num_feature":"11","num_nodes":"47","size_leaf_vector":"1"}},{"base_weights":[-2.2034762E-2,-6.992554E-1,1.2009459E-1,-2.2619802E-1,-7.770644E-1,3.0108796E-2,4.3608746E-1,-1.8819529E-1,9.8236725E-2,-2.865247E-1,-3.567687E-1,-1.062811E-1,4.9500692E-1,-1.0029065E-1,5.495608E-1,1.2943627E-1,-2.4348642E-1,-1.7088316E-2,-2.9766017E-1,-1.630723E-2,6.6177714E-1,7.605159E-1,1.0523952E-1,1.0749047E-1,-6.327291E-1,1.14029996E-1,-1.5381412E-1,2.5014287E-1,2.1765377E-1,2.9394048E-1,2.7658182E-1,-4.290906E-1,2.3437807E-1,8.410444E-2,-9.794848E-2,-2.6686206E-1,9.085504E-2,-8.873452E-2,2.3087071E-1,-9.3394846E-2,1.6968982E-1,-3.6051658E-1,1.7317438E-1],"categories":[],"categories_nodes":[],"categories_segments":[],"categories_sizes":[],"default_left":[0,0,0,0,0,0,0,0,0,0,0,0,0,0,0,0,0,0,0,0,0,0,0,0,0,0,0,0,0,0,0,0,0,0,0,0,0,0,0,0,0,0,0],"id":7,"left_children":[1,3,5,7,9,11,13,-1,-1,-1,15,17,19,-1,21,-1,-1,23,-1,25,27,29,31,33,35,-1,-1,-1,37,-1,39,41,-1,-1,-1,-1,-1,-1,-1,-1,-1,-1,-1],"loss_changes":[7.8328557E0,3.4364748E-1,1.9032056E0,9.6135056E-1,5.3522635E-1,3.446813E0,1.4830914E0,0E0,0E0,0E0,2.1713803E0,3.3184667E0,1.0612538E0,0E0,1.1697617E0,0E0,0E0,3.0873427E0,0E0,9.831237E-1,5.3008413E-1,6.714096E-1,2.3050191E0,2.61189E0,1.8961921E0,0E0,0E0,0E0,1.3479472E0,0E0,8.834418E-1,3.5637538E0,0E0,0E0,0E0,0E0,0E0,0E0,0E0,0E0,0E0,0E0,0E0],"parents":[2147483647,0,0,1,1,2,2,3,3,4,4,5,5,6,6,10,10,11,11,12,12,14,14,17,17,19,19,20,20,21,21,22,22,23,23,24,24,28,28,30,30,31,31],"right_children":[2,4,6,8,10,12,14,-1,-1,-1,16,18,20,-1,22,-1,-1,24,-1,26,28,30,32,34,36,-1,-1,-1,38,-1,40,42,-1,-1,-1,-1,-1,-1,-1,-1,-1,-1,-1],"split_conditions":[5.6526715E-1,-4.9787524E-1,1.2776129E0,2.4597332E-1,1.4115915E-1,2.0911734E0,-4.6212226E-1,-1.8819529E-1,9.8236725E-2,-2.865247E-1,2.2683619E-1,-4.9062297E-1,-1.3279047E0,-1.0029065E-1,2.8252605E-2,1.2943627E-1,-2.4348642E-1,8.7740314E-1,-2.9766017E-1,-2.2719331E-1,-7.5614387E-1,8.88262E-2,-3.0473666E-2,-7.5614387E-1,8.9840144E-1,1.14029996E-1,-1.5381412E-1,2.5014287E-1,-1.1974E-1,2.9394048E-1,2.1930522E-1,-4.7998932E-1,2.3437807E-1,8.410444E-2,-9.794848E-2,-2.6686206E-1,9.085504E-2,-8.873452E-2,2.3087071E-1,-9.3394846E-2,1.6968982E-1,-3.6051658E-1,1.7317438E-1],"split_indices":[9,5,2,6,7,0,5,0,0,0,7,0,10,0,10,0,0,7,0,5,2,5,5,2,6,0,0,0,5,0,5,6,0,0,0,0,0,0,0,0,0,0,0],"split_type":[0,0,0,0,0,0,0,0,0,0,0,0,0,0,0,0,0,0,0,0,0,0,0,0,0,0,0,0,0,0,0,0,0,0,0,0,0,0,0,0,0,0,0],"sum_hessian":[7.950538E1,1.3111518E1,6.639386E1,2.403851E0,1.0707666E1,5.2530075E1,1.3863789E1,1.3167913E0,1.0870597E0,6.627961E0,4.079705E0,4.1211113E1,1.1318959E1,1.5300348E0,1.2333755E1,1.5116243E0,2.568081E0,3.836762E1,2.843495E0,3.0057151E0,8.313244E0,7.880574E0,4.45318E0,3.2596844E1,5.770776E0,1.8014543E0,1.204261E0,5.3597155E0,2.9535282E0,4.718029E0,3.1625452E0,2.6912625E0,1.7619172E0,2.3564892E1,9.031951E0,4.566506E0,1.2042701E0,1.7705256E0,1.1830027E0,1.0170163E0,2.145529E0,1.4125803E0,1.2786822E0],"tree_param":{"num_deleted":"0","num_feature":"11","num_nodes":"43","size_leaf_vector":"1"}},{"base_weights":[-2.1302924E-2,-6.288801E-1,9.509536E-2,-3.8459462E-1,-2.6392215E-1,-1.0006885E-1,2.4461344E-1,4.1225504E-2,-5.1734966E-1,-2.7125576E-1,2.3894209E-1,-6.569689E-2,4.0932852E-1,-2.476722E-1,2.346361E-2,-1.3858639E-1,-2.630671E-1,5.221399E-1,-2.7078667E-1,-3.125388E-1,4.5844418E-1,8.329043E-2,6.3459647E-1,2.3251657E-1,-1.9547482E-1,3.88698E-2,-5.1285535E-1,-2.5707899E-2,6.547535E-1,-1.878752E-1,5.3172268E-2,2.5461936E-1,-5.483891E-1,-1.0093123E-1,2.6115257E-1,5.3912723E-1,-2.0866635E-1,7.306294E-1,-9.243508E-2,-6.0240746E-2,2.4106187E-1,-2.576503E-1,7.7477336E-2,2.8897062E-1,2.9532144E-2,1.179354E-1,-8.922814E-2,-1.4358762E-1,2.2176717E-1,-2.6833174E-1,-2.0343356E-2,2.1905938E-1,5.2440982E-2,-1.939031E-1,1.275347E-1,1.5961862E-1,3.0310148E-1],"categories":[],"categories_nodes":[],"categories_segments":[],"categories_sizes":[],"default_left":[0,0,0,0,0,0,0,0,0,0,0,0,0,0,0,0,0,0,0,0,0,0,0,0,0,0,0,0,0,0,0,0,0,0,0,0,0,0,0,0,0,0,0,0,0,0,0,0,0,0,0,0,0,0,0,0,0],"id":8,"left_children":[1,3,5,7,-1,9,11,-1,13,15,17,19,21,-1,23,25,-1,27,29,31,33,35,37,-1,-1,39,41,-1,43,-1,45,47,49,-1,-1,51,53,55,-1,-1,-1,-1,-1,-1,-1,-1,-1,-1,-1,-1,-1,-1,-1,-1,-1,-1,-1],"loss_changes":[5.383897E0,4.1144323E-1,1.8934362E0,6.2379587E-1,0E0,1.7183697E0,1.8953326E0,0E0,1.1142603E0,1.4373213E0,1.5981891E0,1.8947287E0,1.7111697E0,0E0,2.208145E0,1.1558115E0,0E0,6.065723E-1,5.241914E-1,1.4502144E0,1.8452678E0,1.5717747E0,1.4973569E0,0E0,0E0,2.4579349E0,1.708144E0,0E0,8.8708687E-1,0E0,4.9259454E-1,1.6190075E0,1.1429086E0,0E0,0E0,1.8979204E-1,2.328851E0,1.8727064E-1,0E0,0E0,0E0,0E0,0E0,0E0,0E0,0E0,0E0,0E0,0E0,0E0,0E0,0E0,0E0,0E0,0E0,0E0,0E0],"parents":[2147483647,0,0,1,1,2,2,3,3,5,5,6,6,8,8,9,9,10,10,11,11,12,12,14,14,15,15,17,17,18,18,19,19,20,20,21,21,22,22,25,25,26,26,28,28,30,30,31,31,32,32,35,35,36,36,37,37],"right_children":[2,4,6,8,-1,10,12,-1,14,16,18,20,22,-1,24,26,-1,28,30,32,34,36,38,-1,-1,40,42,-1,44,-1,46,48,50,-1,-1,52,54,56,-1,-1,-1,-1,-1,-1,-1,-1,-1,-1,-1,-1,-1,-1,-1,-1,-1,-1,-1],"split_conditions":[5.6526715E-1,-1.9385697E0,7.771808E-1,-4.9787524E-1,-2.6392215E-1,1.8814616E0,-9.9652976E-2,4.1225504E-2,6.945286E-2,-4.9062297E-1,-7.5614387E-1,1.149283E0,-4.7998932E-1,-2.476722E-1,-1.2787253E-2,8.920381E-2,-2.630671E-1,-1.113243E0,-6.595611E-1,-3.7102056E-1,-3.2364017E-1,-1.695681E-1,1.3837769E0,2.3251657E-1,-1.9547482E-1,-1.2424503E-1,1.1616285E0,-2.5707899E-2,-4.3564364E-1,-1.878752E-1,-5.446554E-3,1.3371454E-1,-9.460524E-2,-1.0093123E-1,2.6115257E-1,2.8252605E-2,5.169709E-1,3.3456308E-1,-9.243508E-2,-6.0240746E-2,2.4106187E-1,-2.576503E-1,7.7477336E-2,2.8897062E-1,2.9532144E-2,1.179354E-1,-8.922814E-2,-1.4358762E-1,2.2176717E-1,-2.6833174E-1,-2.0343356E-2,2.1905938E-1,5.2440982E-2,-1.939031E-1,1.275347E-1,1.5961862E-1,3.0310148E-1],"split_indices":[9,9,1,5,0,0,10,0,7,0,2,2,6,0,5,5,0,7,7,5,5,7,6,0,0,5,4,0,7,0,7,6,5,0,0,10,5,6,0,0,0,0,0,0,0,0,0,0,0,0,0,0,0,0,0,0,0],"split_type":[0,0,0,0,0,0,0,0,0,0,0,0,0,0,0,0,0,0,0,0,0,0,0,0,0,0,0,0,0,0,0,0,0,0,0,0,0,0,0,0,0,0,0,0,0,0,0,0,0,0,0,0,0,0,0,0,0],"sum_hessian":[7.428312E1,1.1235113E1,6.3048008E1,6.975519E0,4.2595935E0,2.7492758E1,3.5555252E1,1.4071736E0,5.5683455E0,1.8400902E1,9.091856E0,1.2537232E1,2.3018019E1,3.211489E0,2.3568568E0,1.610237E1,2.2985322E0,5.829E0,3.2628558E0,8.797705E0,3.739528E0,9.965029E0,1.3052991E1,1.0450996E0,1.3117573E0,1.1531134E1,4.5712357E0,1.1073388E0,4.721661E0,1.1108539E0,2.1520019E0,2.5605857E0,6.237119E0,1.3393751E0,2.400153E0,3.5600562E0,6.4049726E0,1.2050405E1,1.0025861E0,9.340818E0,2.1903155E0,3.0769346E0,1.4943011E0,2.5668507E0,2.1548104E0,1.0310289E0,1.120973E0,1.0238136E0,1.536772E0,3.1254215E0,3.1116977E0,1.6765375E0,1.8835188E0,3.7769003E0,2.6280725E0,8.744687E0,3.3057177E0],"tree_param":{"num_deleted":"0","num_feature":"11","num_nodes":"57","size_leaf_vector":"1"}},{"base_weights":[-1.4803544E-2,-5.6379676E-1,8.195393E-2,-3.310586E-1,-2.4723764E-1,-7.498824E-2,2.0580393E-1,-1.1181613E-1,-2.0436467E-1,-6.184804E-3,-2.0890959E-1,4.786689E-1,5.6680407E-2,-4.6795025E-1,2.2374867E-1,-3.7290454E-1,1.15387164E-1,7.259735E-1,-2.9306574E-2,-4.8666254E-1,1.844748E-1,3.3315808E-2,-2.2945236E-1,-7.485503E-2,-2.182088E-1,2.2966029E-1,-5.866199E-2,4.962383E-2,2.5979438E-1,-2.7872816E-1,6.1671305E-1,-2.3056087E-1,7.503819E-2,-1.9372726E-2,6.664867E-1,-1.1315239E-1,7.355562E-2,-2.4687958E-1,4.590204E-2,2.2456865E-1,4.84387E-2,-4.8864592E-2,2.3780763E-1,3.6177088E-2,2.6378915E-1],"categories":[],"categories_nodes":[],"categories_segments":[],"categories_sizes":[],"default_left":[0,0,0,0,0,0,0,0,0,0,0,0,0,0,0,0,0,0,0,0,0,0,0,0,0,0,0,0,0,0,0,0,0,0,0,0,0,0,0,0,0,0,0,0,0],"id":9,"left_children":[1,3,5,7,-1,9,11,13,-1,15,-1,17,19,21,-1,23,25,27,29,31,33,-1,-1,35,-1,-1,37,-1,-1,-1,39,-1,-1,41,43,-1,-1,-1,-1,-1,-1,-1,-1,-1,-1],"loss_changes":[3.8052285E0,3.772955E-1,1.2017987E0,4.87068E-1,0E0,1.1779858E0,1.3718697E0,2.0925002E0,0E0,1.1980029E0,0E0,1.530719E0,1.7122188E0,8.8390124E-1,0E0,6.5193397E-1,2.3329496E0,4.9403763E-1,3.418632E0,1.1733384E0,1.9428601E0,0E0,0E0,5.5175936E-1,0E0,0E0,2.8564408E0,0E0,0E0,0E0,8.625662E-2,0E0,0E0,1.8510649E0,5.7544374E-1,0E0,0E0,0E0,0E0,0E0,0E0,0E0,0E0,0E0,0E0],"parents":[2147483647,0,0,1,1,2,2,3,3,5,5,6,6,7,7,9,9,11,11,12,12,13,13,15,15,16,16,17,17,18,18,19,19,20,20,23,23,26,26,30,30,33,33,34,34],"right_children":[2,4,6,8,-1,10,12,14,-1,16,-1,18,20,22,-1,24,26,28,30,32,34,-1,-1,36,-1,-1,38,-1,-1,-1,40,-1,-1,42,44,-1,-1,-1,-1,-1,-1,-1,-1,-1,-1],"split_conditions":[5.6526715E-1,-1.9385697E0,7.771808E-1,-1.2787253E-2,-2.4723764E-1,-1.3733363E0,-2.6050863E-1,-2.4905105E-1,-2.0436467E-1,-4.4727236E-1,-2.0890959E-1,-1.9439498E-1,4.1601852E-1,-4.9787524E-1,2.2374867E-1,-4.444422E-1,-3.5216618E-1,-7.744398E-1,-1.4523321E-1,1.2796636E-1,4.0466943E-1,3.3315808E-2,-2.2945236E-1,-5.028344E-1,-2.182088E-1,2.2966029E-1,-3.087844E-1,4.962383E-2,2.5979438E-1,-2.7872816E-1,2.5914532E-1,-2.3056087E-1,7.503819E-2,-4.9062297E-1,2.8597537E-2,-1.1315239E-1,7.355562E-2,-2.4687958E-1,4.590204E-2,2.2456865E-1,4.84387E-2,-4.8864592E-2,2.3780763E-1,3.6177088E-2,2.6378915E-1],"split_indices":[9,9,1,5,0,1,7,5,0,5,0,5,3,5,0,7,5,7,5,6,2,0,0,5,0,0,5,0,0,0,2,0,0,0,7,0,0,0,0,0,0,0,0,0,0],"split_type":[0,0,0,0,0,0,0,0,0,0,0,0,0,0,0,0,0,0,0,0,0,0,0,0,0,0,0,0,0,0,0,0,0,0,0,0,0,0,0,0,0,0,0,0,0],"sum_hessian":[6.9765816E1,9.730264E0,6.003555E1,6.336775E0,3.3934886E0,2.665411E1,3.338144E1,4.7081866E0,1.628588E0,2.490626E1,1.7478508E0,1.1015497E1,2.2365944E1,3.64782E0,1.0603669E0,5.686294E0,1.9219965E1,7.1200137E0,3.8954833E0,3.7240872E0,1.8641857E1,1.4486262E0,2.1991937E0,3.7468774E0,1.9394166E0,3.3411136E0,1.5878851E1,1.8588874E0,5.261126E0,1.4448663E0,2.4506168E0,2.6624327E0,1.0616546E0,1.3775762E1,4.866095E0,1.8349797E0,1.9118977E0,2.817589E0,1.3061262E1,1.4006709E0,1.0499458E0,1.2386266E1,1.3894961E0,1.8043283E0,3.0617666E0],"tree_param":{"num_deleted":"0","num_feature":"11","num_nodes":"45","size_leaf_vector":"1"}},{"base_weights":[-1.2756652E-2,-5.0424224E-1,6.7798875E-2,-2.8632754E-1,-2.310073E-1,9.7232126E-2,-1.589377E-1,-1.0664909E-2,-1.6937904E-1,1.4514877E-1,-3.108352E-1,-4.2278242E-1,1.5209734E-1,9.302629E-4,3.2849696E-1,7.609887E-2,-6.434788E-1,-1.8105788E-2,-1.716876E-1,-6.894174E-1,9.295652E-2,1.5772766E-2,4.9220815E-1,1.5077284E-1,-1.2619181E-1,-2.719479E-1,-8.462572E-3,-5.0265282E-2,-2.5108567E-1,2.379027E-1,3.865936E-3,-7.995694E-2,1.05614424E-1,1.857053E-1,-1.1379872E-1],"categories":[],"categories_nodes":[],"categories_segments":[],"categories_sizes":[],"default_left":[0,0,0,0,0,0,0,0,0,0,0,0,0,0,0,0,0,0,0,0,0,0,0,0,0,0,0,0,0,0,0,0,0,0,0],"id":10,"left_children":[1,3,5,7,-1,9,-1,11,-1,13,15,17,-1,19,21,23,25,-1,-1,27,29,31,33,-1,-1,-1,-1,-1,-1,-1,-1,-1,-1,-1,-1],"loss_changes":[2.6940124E0,3.343184E-1,1.0822668E0,5.198498E-1,0E0,1.1537089E0,0E0,1.1664853E0,0E0,1.3593508E0,8.56782E-1,1.2965423E-1,0E0,1.9562674E0,1.1511159E0,1.015486E0,5.376773E-1,0E0,0E0,1.3864875E-1,1.5122919E0,9.3026775E-1,1.87323E0,0E0,0E0,0E0,0E0,0E0,0E0,0E0,0E0,0E0,0E0,0E0,0E0],"parents":[2147483647,0,0,1,1,2,2,3,3,5,5,7,7,9,9,10,10,11,11,13,13,14,14,15,15,16,16,19,19,20,20,21,21,22,22],"right_children":[2,4,6,8,-1,10,-1,12,-1,14,16,18,-1,20,22,24,26,-1,-1,28,30,32,34,-1,-1,-1,-1,-1,-1,-1,-1,-1,-1,-1,-1],"split_conditions":[5.6526715E-1,-1.9385697E0,4.5847884E-1,2.8252605E-2,-2.310073E-1,1.336264E0,-1.589377E-1,-4.3926258E-2,-1.6937904E-1,-4.7998932E-1,-4.7998932E-1,-1.8756352E-1,1.5209734E-1,-5.028344E-1,-2.8413445E-1,2.1466238E0,1.2468348E0,-1.8105788E-2,-1.716876E-1,-5.428791E-1,-1.0300436E0,-1.1603433E-1,-3.9563236E-1,1.5077284E-1,-1.2619181E-1,-2.719479E-1,-8.462572E-3,-5.0265282E-2,-2.5108567E-1,2.379027E-1,3.865936E-3,-7.995694E-2,1.05614424E-1,1.857053E-1,-1.1379872E-1],"split_indices":[9,9,8,10,0,7,0,10,0,6,6,7,0,5,10,5,6,0,0,5,7,7,4,0,0,0,0,0,0,0,0,0,0,0,0],"split_type":[0,0,0,0,0,0,0,0,0,0,0,0,0,0,0,0,0,0,0,0,0,0,0,0,0,0,0,0,0,0,0,0,0,0,0],"sum_hessian":[6.6181076E1,8.579042E0,5.760203E1,5.855456E0,2.7235863E0,5.5696117E1,1.905916E0,3.4631107E0,2.3923452E0,5.041994E1,5.2761784E0,2.0301435E0,1.4329671E0,2.8784008E1,2.1635931E1,2.7955725E0,2.4806056E0,1.0028299E0,1.0273137E0,2.6221395E0,2.616187E1,7.8111916E0,1.3824739E1,1.4978408E0,1.2977318E0,1.4061735E0,1.074432E0,1.0486124E0,1.5735271E0,1.7713164E0,2.4390553E1,4.35918E0,3.452012E0,1.2321665E1,1.5030742E0],"tree_param":{"num_deleted":"0","num_feature":"11","num_nodes":"35","size_leaf_vector":"1"}},{"base_weights":[-2.131395E-2,-4.470682E-1,4.5106743E-2,-5.449575E-1,-1.0912357E-3,-9.006927E-3,4.1590482E-1,-1.9110907E-2,-6.9943166E-1,3.1451862E-2,-2.3224165E-1,-1.3315743E-1,2.621941E-1,-2.7889999E-2,-2.4584918E-1,6.9372E-2,-1.9766109E-1,9.039884E-2,-1.5315184E-1,1.2951331E-1,-4.5092842E-1,1.9907687E-2,1.7345862E-1,-2.5480041E-2,-1.7954075E-1],"categories":[],"categories_nodes":[],"categories_segments":[],"categories_sizes":[],"default_left":[0,0,0,0,0,0,0,0,0,0,0,0,0,0,0,0,0,0,0,0,0,0,0,0,0],"id":11,"left_children":[1,3,5,7,-1,9,11,-1,13,15,-1,17,-1,-1,-1,19,-1,-1,-1,21,23,-1,-1,-1,-1],"loss_changes":[1.8417541E0,3.79336E-1,1.1400496E0,4.8991346E-1,0E0,1.5844594E0,1.9356223E0,0E0,3.1281352E-1,1.3238589E0,0E0,8.354936E-1,0E0,0E0,0E0,1.5350292E0,0E0,0E0,0E0,1.1822653E0,2.2524393E-1,0E0,0E0,0E0,0E0],"parents":[2147483647,0,0,1,1,2,2,3,3,5,5,6,6,8,8,9,9,11,11,15,15,19,19,20,20],"right_children":[2,4,6,8,-1,10,12,-1,14,16,-1,18,-1,-1,-1,20,-1,-1,-1,22,24,-1,-1,-1,-1],"split_conditions":[5.6526715E-1,1.1648822E0,2.5488582E0,-4.9787524E-1,-1.0912357E-3,-3.9563236E-1,9.967164E-2,-1.9110907E-2,-1.2340978E0,4.5847884E-1,-2.3224165E-1,-3.3147642E-1,2.621941E-1,-2.7889999E-2,-2.4584918E-1,1.336264E0,-1.9766109E-1,9.039884E-2,-1.5315184E-1,4.1808093E-1,1.1733705E0,1.9907687E-2,1.7345862E-1,-2.5480041E-2,-1.7954075E-1],"split_indices":[9,2,4,5,0,4,5,0,3,8,0,5,0,0,0,7,0,0,0,6,5,0,0,0,0],"split_type":[0,0,0,0,0,0,0,0,0,0,0,0,0,0,0,0,0,0,0,0,0,0,0,0,0],"sum_hessian":[6.3415123E1,7.784689E0,5.5630432E1,6.1893945E0,1.5952942E0,4.9397198E1,6.2332373E0,1.8471377E0,4.342257E0,4.782708E1,1.570116E0,3.1576726E0,3.0755646E0,1.0108148E0,3.331442E0,4.6189358E1,1.6377232E0,1.5613539E0,1.5963186E0,4.2076797E1,4.1125593E0,3.7891296E1,4.1855006E0,1.6342472E0,2.4783123E0],"tree_param":{"num_deleted":"0","num_feature":"11","num_nodes":"25","size_leaf_vector":"1"}},{"base_weights":[-2.431487E-2,-3.8704023E-1,2.9164275E-2,-5.9992254E-1,-1.0266724E-1,-3.384106E-2,2.860695E-1,-2.2298792E-1,-1.7549297E-2,3.3860058E-1,-1.9137277E-1,1.4607995E-2,-2.3047827E-1,8.250088E-2,2.4687889E-1,-5.6129042E-2,2.1670035E-1,2.0928931E-1,-2.927483E-2,3.5039768E-1,-1.816082E-1,-1.1943382E-1,2.616293E-1,6.860986E-1,-1.5710448E-1,-7.559161E-4,-1.10862516E-1,-9.705599E-2,1.19047545E-1,-4.15555E-2,2.9651874E-1],"categories":[],"categories_nodes":[],"categories_segments":[],"categories_sizes":[],"default_left":[0,0,0,0,0,0,0,0,0,0,0,0,0,0,0,0,0,0,0,0,0,0,0,0,0,0,0,0,0,0,0],"id":12,"left_children":[1,3,5,7,9,11,13,-1,-1,15,-1,17,-1,19,-1,-1,-1,-1,21,23,-1,25,27,29,-1,-1,-1,-1,-1,-1,-1],"loss_changes":[1.2204685E0,4.275298E-1,9.0405977E-1,2.9916322E-1,1.3179083E0,1.6219068E0,1.1329699E0,0E0,0E0,7.8278863E-1,0E0,1.3226537E0,0E0,1.8850658E0,0E0,0E0,0E0,0E0,1.1271343E0,2.4623632E0,0E0,9.5187104E-1,9.3525153E-1,1.5356805E0,0E0,0E0,0E0,0E0,0E0,0E0,0E0],"parents":[2147483647,0,0,1,1,2,2,3,3,4,4,5,5,6,6,9,9,11,11,13,13,18,18,19,19,21,21,22,22,23,23],"right_children":[2,4,6,8,10,12,14,-1,-1,16,-1,18,-1,20,-1,-1,-1,-1,22,24,-1,26,28,30,-1,-1,-1,-1,-1,-1,-1],"split_conditions":[5.6526715E-1,-1.3371496E-1,2.0911734E0,8.772902E-2,2.2683619E-1,-4.9062297E-1,-7.423513E-2,-2.2298792E-1,-1.7549297E-2,2.5355452E-1,-1.9137277E-1,-1.0602071E0,-2.3047827E-1,-2.1701528E-1,2.4687889E-1,-5.6129042E-2,2.1670035E-1,2.0928931E-1,1.2503933E0,-2.0794556E-1,-1.816082E-1,8.920381E-2,-5.655099E-1,-9.9419045E-1,-1.5710448E-1,-7.559161E-4,-1.10862516E-1,-9.705599E-2,1.19047545E-1,-4.15555E-2,2.9651874E-1],"split_indices":[9,7,0,6,7,0,5,0,0,2,0,7,0,5,0,0,0,0,2,7,0,5,7,7,0,0,0,0,0,0,0],"split_type":[0,0,0,0,0,0,0,0,0,0,0,0,0,0,0,0,0,0,0,0,0,0,0,0,0,0,0,0,0,0,0],"sum_hessian":[6.1334545E1,7.0795918E0,5.4254955E1,3.4141316E0,3.6654599E0,4.426689E1,9.988064E0,2.4045544E0,1.0095774E0,2.2104738E0,1.4549862E0,4.244682E1,1.8200712E0,8.078501E0,1.9095633E0,1.1489277E0,1.0615461E0,1.6631291E0,4.078369E1,6.167201E0,1.9112998E0,3.1584307E1,9.199384E0,4.6112537E0,1.5559474E0,2.2211508E1,9.372799E0,1.465123E0,7.7342606E0,1.3823127E0,3.228941E0],"tree_param":{"num_deleted":"0","num_feature":"11","num_nodes":"31","size_leaf_vector":"1"}},{"base_weights":[-2.0262334E-2,-2.2918265E-1,5.3293902E-2,-6.0665697E-2,-2.4197339E-1,-2.603395E-2,3.673765E-1,1.8550096E-1,-4.0554145E-1,1.4428659E-1,-1.6854003E-1,4.8745883E-1,-7.755576E-2,-3.874576E-1,4.8646292E-1,-7.5950193E-1,5.5902306E-2,-1.854965E-1,4.3137762E-1,-1.0696411E0,9.787845E-2,3.3248473E-2,2.9053023E-1,-2.129695E-1,2.2363529E-2,1.3941549E-1,2.1443833E-1,-2.9338574E-1,-8.040505E-2,-4.5323756E-1,1.5965602E-1,-1.3138017E-1,6.635286E-1,-4.072958E-1,-1.1215578E-2,2.8095946E-1,-5.1820797E-1,4.4460464E-1,-3.8269904E-1,-7.4679226E-2,1.1696133E-1,-2.2557534E-1,-1.3758894E-3,2.6582414E-1,-8.937235E-2,1.5265518E-1,-6.935036E-2,-2.7892578E-1,6.554409E-2,1.654235E-1,3.78433E-2,-2.0764522E-1,3.1313375E-2],"categories":[],"categories_nodes":[],"categories_segments":[],"categories_sizes":[],"default_left":[0,0,0,0,0,0,0,0,0,0,0,0,0,0,0,0,0,0,0,0,0,0,0,0,0,0,0,0,0,0,0,0,0,0,0,0,0,0,0,0,0,0,0,0,0,0,0,0,0,0,0,0,0],"id":13,"left_children":[1,3,5,7,-1,9,11,13,15,17,19,21,-1,23,25,27,-1,29,31,33,35,37,-1,-1,-1,39,-1,-1,-1,41,-1,-1,43,-1,-1,45,47,49,51,-1,-1,-1,-1,-1,-1,-1,-1,-1,-1,-1,-1,-1,-1],"loss_changes":[9.3649566E-1,1.4933314E0,1.1381166E0,1.2086735E0,0E0,9.246925E-1,8.174474E-1,1.6501465E0,1.3722353E0,1.7309561E0,5.064108E0,1.7297632E0,0E0,5.706988E-1,3.758495E-1,1.5372443E-1,0E0,1.9349641E0,2.232577E0,1.3756566E0,2.0473347E0,1.057074E0,0E0,0E0,0E0,4.494931E-1,0E0,0E0,0E0,9.2917836E-1,0E0,0E0,1.9740665E0,0E0,0E0,1.7102722E0,1.4807613E0,3.4822702E-2,5.417322E-1,0E0,0E0,0E0,0E0,0E0,0E0,0E0,0E0,0E0,0E0,0E0,0E0,0E0,0E0],"parents":[2147483647,0,0,1,1,2,2,3,3,5,5,6,6,7,7,8,8,9,9,10,10,11,11,13,13,14,14,15,15,17,17,18,18,19,19,20,20,21,21,25,25,29,29,32,32,35,35,36,36,37,37,38,38],"right_children":[2,4,6,8,-1,10,12,14,16,18,20,22,-1,24,26,28,-1,30,32,34,36,38,-1,-1,-1,40,-1,-1,-1,42,-1,-1,44,-1,-1,46,48,50,52,-1,-1,-1,-1,-1,-1,-1,-1,-1,-1,-1,-1,-1,-1],"split_conditions":[5.7279134E-1,-1.817256E0,1.2503933E0,-1.9272353E-1,-2.4197339E-1,-2.0717095E-1,1.8621101E0,-7.1931636E-1,-2.3014997E-1,-4.7998932E-1,-1.1974E-1,2.8597537E-2,-7.755576E-2,-4.8851603E-1,-6.850862E-1,-4.701495E-1,5.5902306E-2,-3.087844E-1,-5.94103E-1,2.8722504E-1,1.5400228E-1,-1.6695939E-1,2.9053023E-1,-2.129695E-1,2.2363529E-2,-1.3733363E0,2.1443833E-1,-2.9338574E-1,-8.040505E-2,1.8814616E0,1.5965602E-1,-1.3138017E-1,-7.5614387E-1,-4.072958E-1,-1.1215578E-2,8.104179E-1,9.743029E-1,-4.5639327E-1,4.644555E-2,-7.4679226E-2,1.1696133E-1,-2.2557534E-1,-1.3758894E-3,2.6582414E-1,-8.937235E-2,1.5265518E-1,-6.935036E-2,-2.7892578E-1,6.554409E-2,1.654235E-1,3.78433E-2,-2.0764522E-1,3.1313375E-2],"split_indices":[3,3,2,7,0,5,7,7,5,6,5,7,0,8,10,5,0,5,5,6,6,5,0,0,0,1,0,0,0,0,0,0,2,0,0,7,6,7,5,0,0,0,0,0,0,0,0,0,0,0,0,0,0],"split_type":[0,0,0,0,0,0,0,0,0,0,0,0,0,0,0,0,0,0,0,0,0,0,0,0,0,0,0,0,0,0,0,0,0,0,0,0,0,0,0,0,0,0,0,0,0,0,0,0,0,0,0,0,0],"sum_hessian":[5.9145645E1,1.4850453E1,4.4295193E1,1.235084E1,2.4996133E0,3.609563E1,8.199563E0,7.476418E0,4.874422E0,1.6437433E1,1.9658197E1,7.0652323E0,1.1343305E0,2.4757648E0,5.0006533E0,2.8730621E0,2.0013602E0,7.814616E0,8.622817E0,3.7978675E0,1.586033E1,4.1835814E0,2.8816507E0,1.142102E0,1.3336626E0,2.6235816E0,2.3770714E0,1.30378E0,1.569282E0,5.9597316E0,1.8548846E0,1.6305707E0,6.992246E0,2.722914E0,1.0749536E0,1.2646237E1,3.2140927E0,2.0687606E0,2.114821E0,1.0310171E0,1.5925647E0,3.1720526E0,2.787679E0,5.7415743E0,1.2506719E0,8.756214E0,3.8900228E0,1.8939714E0,1.3201213E0,1.0014096E0,1.0673509E0,1.0357529E0,1.0790681E0],"tree_param":{"num_deleted":"0","num_feature":"11","num_nodes":"53","size_leaf_vector":"1"}},{"base_weights":[-2.577E-2,-8.261072E-2,2.2861198E-1,-3.8219478E-2,-2.1868053E-1,7.8888744E-2,2.1205404E-1,1.793248E-1,-7.274791E-2,2.456699E-1,-3.1735328E-1,-1.7981057E-1,7.642741E-2,4.406227E-1,-1.0379884E-1,-2.766559E-1,1.4483722E-1,-6.532795E-2,-2.68414E-1,1.8252176E-1,-4.041427E-1,-3.5474665E-2,1.9327383E-1,-8.867122E-2,4.2832796E-2,-1.4657842E-1,1.0257414E-1,-2.0195208E-1,3.7293177E-2],"categories":[],"categories_nodes":[],"categories_segments":[],"categories_sizes":[],"default_left":[0,0,0,0,0,0,0,0,0,0,0,0,0,0,0,0,0,0,0,0,0,0,0,0,0,0,0,0,0],"id":14,"left_children":[1,3,5,7,-1,9,-1,-1,11,13,15,17,19,21,-1,-1,-1,23,-1,25,27,-1,-1,-1,-1,-1,-1,-1,-1],"loss_changes":[8.492444E-1,1.3399525E0,7.142415E-1,1.0462449E0,0E0,6.935803E-1,0E0,0E0,7.197449E-1,9.7368073E-1,1.9918394E0,2.072218E0,1.0512481E0,7.356459E-1,0E0,0E0,0E0,1.1690812E0,0E0,1.9206796E0,6.2082887E-1,0E0,0E0,0E0,0E0,0E0,0E0,0E0,0E0],"parents":[2147483647,0,0,1,1,2,2,3,3,5,5,8,8,9,9,10,10,11,11,12,12,13,13,17,17,19,19,20,20],"right_children":[2,4,6,8,-1,10,-1,-1,12,14,16,18,20,22,-1,-1,-1,24,-1,26,28,-1,-1,-1,-1,-1,-1,-1,-1],"split_conditions":[2.2011209E0,-4.9062297E-1,5.900279E-3,-1.0602071E0,-2.1868053E-1,-2.1701528E-1,2.1205404E-1,1.793248E-1,2.5355452E-1,-1.3337977E-1,-3.2493174E-1,-7.5614387E-1,3.046591E-1,-9.9419045E-1,-1.0379884E-1,-2.766559E-1,1.4483722E-1,5.356399E-1,-2.68414E-1,-4.3242246E-1,1.3158131E0,-3.5474665E-2,1.9327383E-1,-8.867122E-2,4.2832796E-2,-1.4657842E-1,1.0257414E-1,-2.0195208E-1,3.7293177E-2],"split_indices":[0,0,5,7,0,5,0,0,2,7,7,2,6,7,0,0,0,1,0,5,6,0,0,0,0,0,0,0,0],"split_type":[0,0,0,0,0,0,0,0,0,0,0,0,0,0,0,0,0,0,0,0,0,0,0,0,0,0,0,0,0],"sum_hessian":[5.6427483E1,4.667367E1,9.753812E0,4.466509E1,2.0085812E0,8.315421E0,1.4383904E0,1.4601022E0,4.3204987E1,6.119626E0,2.1957953E0,2.5033302E1,1.8171686E1,4.794976E0,1.3246503E0,1.163656E0,1.0321393E0,2.2518612E1,2.5146904E0,1.5393497E1,2.7781894E0,1.3924601E0,3.402516E0,1.0491113E1,1.2027498E1,2.5579486E0,1.2835548E1,1.6594975E0,1.118692E0],"tree_param":{"num_deleted":"0","num_feature":"11","num_nodes":"29","size_leaf_vector":"1"}},{"base_weights":[-2.6184462E-2,-3.4240913E-1,1.9044194E-2,8.018587E-3,-4.5100132E-1,-2.5141962E-2,3.3065298E-1,-2.1698183E-1,-2.882954E-2,1.4227188E-1,-1.7721844E-1,-1.1452739E-1,2.2613145E-1,6.772774E-2,-8.143787E-2,1.1351341E-3,4.4871086E-1,-2.4734737E-1,2.0268242E-1,7.6986276E-2,-1.2103977E-1,1.68571E-1,-5.108475E-1,6.514796E-1,1.5024539E-3,-6.1217487E-1,-1.0649552E-1,3.958947E-1,-4.8561763E-2,-5.5721365E-3,1.8039767E-1,-3.3823508E-1,2.2428054E-2,2.1633556E-1,6.0134243E-2,-5.954063E-2,5.9081167E-2,-2.6083514E-1,5.2248765E-2,-6.3461415E-2,1.7498857E-1,8.106269E-3,1.7126566E-1],"categories":[],"categories_nodes":[],"categories_segments":[],"categories_sizes":[],"default_left":[0,0,0,0,0,0,0,0,0,0,0,0,0,0,0,0,0,0,0,0,0,0,0,0,0,0,0,0,0,0,0,0,0,0,0,0,0,0,0,0,0,0,0],"id":15,"left_children":[1,3,5,-1,7,9,11,-1,13,15,17,19,-1,-1,-1,21,23,25,27,-1,-1,29,31,33,35,37,39,41,-1,-1,-1,-1,-1,-1,-1,-1,-1,-1,-1,-1,-1,-1,-1],"loss_changes":[8.036274E-1,2.9371405E-1,6.9270253E-1,0E0,6.096513E-1,1.1572076E0,1.2624025E0,0E0,2.5846452E-1,9.3881464E-1,6.8271154E-1,5.229063E-1,0E0,0E0,0E0,1.4467688E0,6.198256E-1,9.8792315E-1,3.6341393E-1,0E0,0E0,1.0407453E0,1.5863097E0,3.330946E-3,1.6172482E-1,1.2636595E0,1.2824315E0,1.8259695E-1,0E0,0E0,0E0,0E0,0E0,0E0,0E0,0E0,0E0,0E0,0E0,0E0,0E0,0E0,0E0],"parents":[2147483647,0,0,1,1,2,2,4,4,5,5,6,6,8,8,9,9,10,10,11,11,15,15,16,16,17,17,18,18,21,21,22,22,23,23,24,24,25,25,26,26,27,27],"right_children":[2,4,6,-1,8,10,12,-1,14,16,18,20,-1,-1,-1,22,24,26,28,-1,-1,30,32,34,36,38,40,42,-1,-1,-1,-1,-1,-1,-1,-1,-1,-1,-1,-1,-1,-1,-1],"split_conditions":[5.6526715E-1,-4.9787524E-1,2.5488582E0,8.018587E-3,1.4115915E-1,-1.9272353E-1,9.967164E-2,-2.1698183E-1,-5.0565682E-2,-4.036687E-1,4.7488657E-1,-3.3147642E-1,2.2613145E-1,6.772774E-2,-8.143787E-2,-2.1701528E-1,-7.5614387E-1,-3.283062E-1,1.336264E0,7.6986276E-2,-1.2103977E-1,-7.746776E-2,-1.4476794E-1,-1.5244319E-1,-1.8931769E-1,2.0303096E-1,8.195495E-1,-2.3014997E-1,-4.8561763E-2,-5.5721365E-3,1.8039767E-1,-3.3823508E-1,2.2428054E-2,2.1633556E-1,6.0134243E-2,-5.954063E-2,5.9081167E-2,-2.6083514E-1,5.2248765E-2,-6.3461415E-2,1.7498857E-1,8.106269E-3,1.7126566E-1],"split_indices":[9,5,4,0,7,7,5,0,6,7,6,5,0,0,0,5,2,5,7,0,0,6,5,5,5,6,0,5,0,0,0,0,0,0,0,0,0,0,0,0,0,0,0],"split_type":[0,0,0,0,0,0,0,0,0,0,0,0,0,0,0,0,0,0,0,0,0,0,0,0,0,0,0,0,0,0,0,0,0,0,0,0,0,0,0,0,0,0,0],"sum_hessian":[5.4732292E1,6.0264697E0,4.8705822E1,1.5412284E0,4.4852414E0,4.3462196E1,5.243628E0,2.2931194E0,2.1921217E0,2.0718569E1,2.2743628E1,2.910596E0,2.3330321E0,1.10363E0,1.0884918E0,1.48724575E1,5.8461103E0,1.9493992E1,3.2496357E0,1.323009E0,1.5875869E0,1.171274E1,3.1597183E0,3.7080667E0,2.1380439E0,4.4977946E0,1.4996197E1,2.067764E0,1.1818717E0,8.844859E0,2.8678806E0,1.0884224E0,2.0712957E0,2.6933913E0,1.0146755E0,1.0490841E0,1.0889598E0,3.3093407E0,1.1884538E0,1.3616051E1,1.3801459E0,1.0367497E0,1.0310142E0],"tree_param":{"num_deleted":"0","num_feature":"11","num_nodes":"43","size_leaf_vector":"1"}},{"base_weights":[-1.4808155E-2,-2.965161E-1,2.3723135E-2,-5.9372447E-2,-1.5962698E-1,-8.540184E-2,1.13113165E-1,-1.1445702E-1,1.0147447E-1,-2.4054356E-2,-1.6283403E-1,3.4172198E-1,1.8896154E-3,-1.454072E-1,2.3249991E-1,5.389635E-1,-1.584832E-2,-1.2122431E-1,2.6855615E-1,2.0819793E-2,-2.8599572E-1,1.7954731E-1,-3.8573757E-2,8.417862E-2,2.3833771E-1,1.5793744E-1,-1.8733718E-1,1.642834E-1,-2.2990154E-1,-9.30807E-2,1.895954E-1,-5.132002E-2,2.0717111E-1,-1.3358293E-1,7.393565E-2,-9.475741E-2,1.3230431E-1,-9.2710055E-2,9.452536E-2,-1.3517304E-1,7.697411E-2],"categories":[],"categories_nodes":[],"categories_segments":[],"categories_sizes":[],"default_left":[0,0,0,0,0,0,0,0,0,0,0,0,0,0,0,0,0,0,0,0,0,0,0,0,0,0,0,0,0,0,0,0,0,0,0,0,0,0,0,0,0],"id":16,"left_children":[1,3,5,7,-1,9,11,-1,-1,13,-1,15,17,19,21,23,25,27,29,31,-1,-1,33,35,-1,-1,-1,-1,37,39,-1,-1,-1,-1,-1,-1,-1,-1,-1,-1,-1],"loss_changes":[5.958863E-1,3.3719254E-1,4.842046E-1,6.946248E-1,0E0,6.175872E-1,6.9025433E-1,0E0,0E0,6.8337494E-1,0E0,6.3536584E-1,6.6567653E-1,2.004666E0,7.259476E-1,6.020081E-1,1.6922243E0,1.134975E0,9.0025306E-1,1.8191762E0,0E0,0E0,6.9044375E-1,5.945487E-1,0E0,0E0,0E0,0E0,6.427562E-1,6.256947E-1,0E0,0E0,0E0,0E0,0E0,0E0,0E0,0E0,0E0,0E0,0E0],"parents":[2147483647,0,0,1,1,2,2,3,3,5,5,6,6,9,9,11,11,12,12,13,13,14,14,15,15,16,16,17,17,18,18,19,19,22,22,23,23,28,28,29,29],"right_children":[2,4,6,8,-1,10,12,-1,-1,14,-1,16,18,20,22,24,26,28,30,32,-1,-1,34,36,-1,-1,-1,-1,38,40,-1,-1,-1,-1,-1,-1,-1,-1,-1,-1,-1],"split_conditions":[5.6526715E-1,2.8252605E-2,7.771808E-1,-2.6502842E-2,-1.5962698E-1,4.1639027E-1,-2.6050863E-1,-1.1445702E-1,1.0147447E-1,-1.1974E-1,-1.6283403E-1,-1.9439498E-1,1.0433582E0,-1.7546889E-1,1.565685E-1,-1.3279047E0,2.8252605E-2,-2.5232534E0,-4.7998932E-1,-1.6414667E-2,-2.8599572E-1,1.7954731E-1,-5.446554E-3,-4.7998932E-1,2.3833771E-1,1.5793744E-1,-1.8733718E-1,1.642834E-1,1.0539256E0,5.211855E-2,1.895954E-1,-5.132002E-2,2.0717111E-1,-1.3358293E-1,7.393565E-2,-9.475741E-2,1.3230431E-1,-9.2710055E-2,9.452536E-2,-1.3517304E-1,7.697411E-2],"split_indices":[9,10,1,10,0,6,7,0,0,5,0,5,10,5,5,10,10,8,6,6,0,0,7,6,0,0,0,0,4,5,0,0,0,0,0,0,0,0,0,0,0],"split_type":[0,0,0,0,0,0,0,0,0,0,0,0,0,0,0,0,0,0,0,0,0,0,0,0,0,0,0,0,0,0,0,0,0,0,0,0,0,0,0,0,0],"sum_hessian":[5.324922E1,5.601363E0,4.7647858E1,3.4153185E0,2.1860447E0,2.1475613E1,2.6172243E1,1.9090759E0,1.5062426E0,1.986389E1,1.6117233E0,7.887628E0,1.8284616E1,1.37793455E1,6.084544E0,4.756547E0,3.1310813E0,1.2882476E1,5.4021397E0,1.2236027E1,1.5433192E0,2.0750518E0,4.0094924E0,2.1892064E0,2.5673406E0,1.7271078E0,1.4039735E0,1.2361183E0,1.1646358E1,3.080604E0,2.3215356E0,1.0089828E1,2.146199E0,1.4204397E0,2.5890527E0,1.0862662E0,1.1029402E0,1.0547772E1,1.0985849E0,1.3805299E0,1.7000742E0],"tree_param":{"num_deleted":"0","num_feature":"11","num_nodes":"41","size_leaf_vector":"1"}},{"base_weights":[-4.285939E-3,-5.6556262E-2,2.2856966E-1,-1.98148E-2,-1.9565375E-1,1.0826976E-1,1.8329796E-1,7.989444E-2,-2.4914429E-1,3.4091157E-1,-1.2253405E-1,-6.686775E-2,5.3370684E-1,-3.7899616E-1,2.9456538E-1,8.506973E-3,2.084391E-1,-1.0393655E-1,1.2186678E-1,1.4729473E-2,-5.034521E-1,7.3374754E-1,-1.0117635E-1,1.1350104E-1,-4.938221E-1,-1.5623849E-2,1.480965E-1,7.644574E-2,-8.183462E-2,-6.341039E-2,1.1613417E-1,-3.5336882E-2,1.0118096E-1,-5.8056276E-2,-1.8904261E-1,7.604941E-2,2.9397097E-1,-2.9686517E-1,-6.9892325E-2],"categories":[],"categories_nodes":[],"categories_segments":[],"categories_sizes":[],"default_left":[0,0,0,0,0,0,0,0,0,0,0,0,0,0,0,0,0,0,0,0,0,0,0,0,0,0,0,0,0,0,0,0,0,0,0,0,0,0,0],"id":17,"left_children":[1,3,5,7,-1,9,-1,11,13,15,17,19,21,23,25,27,-1,-1,29,31,33,35,-1,-1,37,-1,-1,-1,-1,-1,-1,-1,-1,-1,-1,-1,-1,-1,-1],"loss_changes":[6.5497553E-1,9.4738615E-1,3.87865E-1,9.885983E-1,0E0,5.101281E-1,0E0,2.0526197E0,1.0351291E0,5.3618777E-1,3.221026E-1,8.5425365E-1,1.5561912E0,1.1430537E0,2.3857018E-1,3.042964E-1,0E0,0E0,3.6334845E-1,9.373173E-1,2.6150167E-2,5.1095796E-1,0E0,0E0,1.0602329E0,0E0,0E0,0E0,0E0,0E0,0E0,0E0,0E0,0E0,0E0,0E0,0E0,0E0,0E0],"parents":[2147483647,0,0,1,1,2,2,3,3,5,5,7,7,8,8,9,9,10,10,11,11,12,12,13,13,14,14,15,15,18,18,19,19,20,20,21,21,24,24],"right_children":[2,4,6,8,-1,10,-1,12,14,16,18,20,22,24,26,28,-1,-1,30,32,34,36,-1,-1,38,-1,-1,-1,-1,-1,-1,-1,-1,-1,-1,-1,-1,-1,-1],"split_conditions":[2.2011209E0,-4.9062297E-1,5.900279E-3,8.920381E-2,-1.9565375E-1,-3.42155E-1,1.8329796E-1,-1.1974E-1,2.650898E0,-4.574504E-1,-4.3225878E-1,-1.5244319E-1,7.267605E-1,-4.32743E-1,2.8597537E-2,2.8252605E-2,2.084391E-1,-1.0393655E-1,-2.1701528E-1,-3.087844E-1,-1.314197E-1,-3.0473666E-2,-1.0117635E-1,1.1350104E-1,3.5212016E-1,-1.5623849E-2,1.480965E-1,7.644574E-2,-8.183462E-2,-6.341039E-2,1.1613417E-1,-3.5336882E-2,1.0118096E-1,-5.8056276E-2,-1.8904261E-1,7.604941E-2,2.9397097E-1,-2.9686517E-1,-6.9892325E-2],"split_indices":[0,0,5,5,0,5,0,5,4,5,7,5,7,8,7,10,0,0,5,5,5,5,0,0,5,0,0,0,0,0,0,0,0,0,0,0,0,0,0],"split_type":[0,0,0,0,0,0,0,0,0,0,0,0,0,0,0,0,0,0,0,0,0,0,0,0,0,0,0,0,0,0,0,0,0,0,0,0,0,0,0],"sum_hessian":[5.1750427E1,4.288167E1,8.868755E0,4.1363403E1,1.5182663E0,7.722564E0,1.146191E0,2.9283129E1,1.2080276E1,3.6083834E0,4.114181E0,2.2771513E1,6.5116158E0,9.995934E0,2.0843422E0,2.388708E0,1.2196752E0,1.9291322E0,2.1850488E0,1.9999826E1,2.771687E0,5.4235E0,1.0881158E0,1.0138996E0,8.982034E0,1.02977E0,1.0545723E0,1.3237029E0,1.0650052E0,1.0584397E0,1.126609E0,1.46255665E1,5.374259E0,1.5376159E0,1.234071E0,2.5256965E0,2.8978038E0,2.1336122E0,6.8484216E0],"tree_param":{"num_deleted":"0","num_feature":"11","num_nodes":"39","size_leaf_vector":"1"}},{"base_weights":[9.812885E-4,-1.7052124E-1,5.857911E-2,-5.198638E-2,-1.9655602E-1,-1.1761645E-2,3.344378E-1,-1.7447206E-1,3.1882867E-1,2.9552647E-1,-8.785345E-2,3.6210444E-2,5.831123E-1,-4.2325163E-1,1.09888546E-1,1.8783781E-1,-5.357125E-2,-1.038023E-1,5.810256E-1,-4.252939E-1,-3.0902056E-3,1.280073E-1,-1.004452E-1,2.5633532E-1,-3.117523E-2,-1.3844627E-1,-2.426917E-1,4.406485E-1,-2.5982103E-1,2.5344408E-1,6.7167394E-3,-7.300863E-1,1.05769835E-1,-7.579844E-2,1.3887739E-1,-1.4345339E-1,7.4487984E-2,2.0657232E-1,-8.0978405E-3,-1.4600077E-1,2.5440734E-2,-2.5613388E-1,-5.7232294E-2,1.3848545E-1,-4.874483E-2],"categories":[],"categories_nodes":[],"categories_segments":[],"categories_sizes":[],"default_left":[0,0,0,0,0,0,0,0,0,0,0,0,0,0,0,0,0,0,0,0,0,0,0,0,0,0,0,0,0,0,0,0,0,0,0,0,0,0,0,0,0,0,0,0,0],"id":18,"left_children":[1,3,5,7,-1,9,11,13,15,17,19,21,23,25,27,-1,-1,-1,29,31,33,-1,-1,-1,-1,35,-1,37,39,-1,-1,41,-1,43,-1,-1,-1,-1,-1,-1,-1,-1,-1,-1,-1],"loss_changes":[5.1882726E-1,7.246264E-1,7.6661736E-1,5.8690596E-1,0E0,7.8086054E-1,5.7366174E-1,7.1426094E-1,6.098016E-1,1.4166572E0,7.608936E-1,8.25662E-1,8.9171803E-1,4.637124E-1,7.501831E-1,0E0,0E0,0E0,7.129197E-1,1.5240787E0,7.908709E-1,0E0,0E0,0E0,0E0,6.733361E-1,0E0,3.7970376E-1,2.8235143E-1,0E0,0E0,1.1491442E-1,0E0,1.0139104E0,0E0,0E0,0E0,0E0,0E0,0E0,0E0,0E0,0E0,0E0,0E0],"parents":[2147483647,0,0,1,1,2,2,3,3,5,5,6,6,7,7,8,8,9,9,10,10,11,11,12,12,13,13,14,14,18,18,19,19,20,20,25,25,27,27,28,28,31,31,33,33],"right_children":[2,4,6,8,-1,10,12,14,16,18,20,22,24,26,28,-1,-1,-1,30,32,34,-1,-1,-1,-1,36,-1,38,40,-1,-1,42,-1,44,-1,-1,-1,-1,-1,-1,-1,-1,-1,-1,-1],"split_conditions":[5.7279134E-1,-1.817256E0,1.2503933E0,1.2796636E-1,-1.9655602E-1,-6.2433076E-1,2.8597537E-2,-3.116209E-1,3.5187778E-1,-4.995667E-1,-4.036687E-1,-1.6695939E-1,1.5382138E0,-1.4566602E-1,-1.4790812E-1,1.8783781E-1,-5.357125E-2,-1.038023E-1,-3.42155E-1,1.670094E-2,2.650898E0,1.280073E-1,-1.004452E-1,2.5633532E-1,-3.117523E-2,-8.569766E-1,-2.426917E-1,-1.3279047E0,-7.5614387E-1,2.5344408E-1,6.7167394E-3,-1.0763289E-1,1.05769835E-1,-2.6050863E-1,1.3887739E-1,-1.4345339E-1,7.4487984E-2,2.0657232E-1,-8.0978405E-3,-1.4600077E-1,2.5440734E-2,-2.5613388E-1,-5.7232294E-2,1.3848545E-1,-4.874483E-2],"split_indices":[3,3,2,6,0,7,7,5,6,5,7,5,7,7,5,0,0,0,5,2,4,0,0,0,0,10,0,10,2,0,0,1,0,7,0,0,0,0,0,0,0,0,0,0,0],"split_type":[0,0,0,0,0,0,0,0,0,0,0,0,0,0,0,0,0,0,0,0,0,0,0,0,0,0,0,0,0,0,0,0,0,0,0,0,0,0,0,0,0,0,0,0,0],"sum_hessian":[5.0511375E1,1.22060995E1,3.8305275E1,1.0697153E1,1.5089457E0,3.1285261E1,7.0200143E0,8.439088E0,2.2580652E0,5.637012E0,2.5648249E1,3.7128844E0,3.3071296E0,4.240636E0,4.1984525E0,1.235787E0,1.0222782E0,1.6707636E0,3.9662485E0,4.342686E0,2.1305563E1,1.7359234E0,1.976961E0,2.1961021E0,1.1110276E0,3.2211545E0,1.0194813E0,2.1146803E0,2.0837722E0,2.3461292E0,1.6201195E0,3.164243E0,1.1784431E0,1.9154415E1,2.1511486E0,1.5889264E0,1.6322279E0,1.0732448E0,1.0414355E0,1.0080483E0,1.0757239E0,2.0996013E0,1.0646417E0,2.059689E0,1.7094725E1],"tree_param":{"num_deleted":"0","num_feature":"11","num_nodes":"45","size_leaf_vector":"1"}},{"base_weights":[5.2109775E-3,-2.5693417E-1,3.940903E-2,3.150122E-2,-3.8539505E-1,-6.7462765E-2,1.25023E-1,-1.9240479E-1,-7.0031676E-3,2.0411703E-1,-1.2358064E-1,-7.066644E-2,2.374632E-1,-2.0052448E-2,1.3028827E-1,-2.0249549E-1,-2.0660223E-2,-2.644171E-1,2.785629E-1,5.0359607E-1,8.9480534E-2,1.0301558E-1,-2.4681427E-1,1.1239673E-1,-5.1589525E-1,-3.6744885E-2,1.8800484E-1,2.1514109E-1,-5.702856E-2,-3.6490593E-2,1.6242647E-1,-1.1694211E-1,8.565338E-2,5.234426E-2,-2.4227072E-1,1.1898193E-1,-5.704885E-2,-2.833712E-1,2.106752E-2,-6.0452066E-2,1.172214E-1],"categories":[],"categories_nodes":[],"categories_segments":[],"categories_sizes":[],"default_left":[0,0,0,0,0,0,0,0,0,0,0,0,0,0,0,0,0,0,0,0,0,0,0,0,0,0,0,0,0,0,0,0,0,0,0,0,0,0,0,0,0],"id":19,"left_children":[1,3,5,-1,7,9,11,-1,-1,13,15,17,19,-1,-1,-1,21,23,25,27,29,31,33,35,37,-1,-1,-1,-1,39,-1,-1,-1,-1,-1,-1,-1,-1,-1,-1,-1],"loss_changes":[4.5945495E-1,3.1557754E-1,4.2204052E-1,0E0,4.0955567E-1,3.4154865E-1,5.767386E-1,0E0,0E0,2.7422896E-1,9.9758136E-1,7.5416213E-1,6.004865E-1,0E0,0E0,0E0,4.7439694E-1,7.195588E-1,6.457708E-1,9.7199E-1,6.88711E-1,1.1080453E0,1.5511267E0,3.8631934E-1,1.1633196E0,0E0,0E0,0E0,0E0,7.92599E-1,0E0,0E0,0E0,0E0,0E0,0E0,0E0,0E0,0E0,0E0,0E0],"parents":[2147483647,0,0,1,1,2,2,4,4,5,5,6,6,9,9,10,10,11,11,12,12,16,16,17,17,18,18,19,19,20,20,21,21,22,22,23,23,24,24,29,29],"right_children":[2,4,6,-1,8,10,12,-1,-1,14,16,18,20,-1,-1,-1,22,24,26,28,30,32,34,36,38,-1,-1,-1,-1,40,-1,-1,-1,-1,-1,-1,-1,-1,-1,-1,-1],"split_conditions":[5.6526715E-1,-4.9787524E-1,7.771808E-1,3.150122E-2,1.4115915E-1,-9.2248416E-1,-9.9652976E-2,-1.9240479E-1,-7.0031676E-3,-4.5110998E-1,-7.744398E-1,-9.460524E-2,-2.5355607E-1,-2.0052448E-2,1.3028827E-1,-2.0249549E-1,-4.7998932E-1,-2.7830654E-1,8.260239E-2,3.046591E-1,3.2290286E-1,-3.1362313E-1,-1.7546889E-1,-7.5614387E-1,-1.1603433E-1,-3.6744885E-2,1.8800484E-1,2.1514109E-1,-5.702856E-2,5.169709E-1,1.6242647E-1,-1.1694211E-1,8.565338E-2,5.234426E-2,-2.4227072E-1,1.1898193E-1,-5.704885E-2,-2.833712E-1,2.106752E-2,-6.0452066E-2,1.172214E-1],"split_indices":[9,5,1,0,7,7,10,0,0,5,7,5,5,0,0,0,6,7,2,6,6,5,5,2,7,0,0,0,0,5,0,0,0,0,0,0,0,0,0,0,0],"split_type":[0,0,0,0,0,0,0,0,0,0,0,0,0,0,0,0,0,0,0,0,0,0,0,0,0,0,0,0,0,0,0,0,0,0,0,0,0,0,0,0,0],"sum_hessian":[4.9121223E1,4.9169817E0,4.4204243E1,1.335844E0,3.5811377E0,1.9755497E1,2.4448746E1,1.6460327E0,1.9351051E0,2.9314744E0,1.6824022E1,9.057213E0,1.5391533E1,1.6723899E0,1.2590845E0,1.7720115E0,1.5052011E1,5.9815397E0,3.0756726E0,4.641378E0,1.0750155E1,1.0082649E1,4.969362E0,2.6155162E0,3.3660235E0,1.7303778E0,1.3452948E0,3.5230649E0,1.118313E0,9.125758E0,1.6243969E0,2.417717E0,7.664932E0,3.2308614E0,1.7385002E0,1.1883762E0,1.4271401E0,1.5909058E0,1.7751178E0,6.964191E0,2.161567E0],"tree_param":{"num_deleted":"0","num_feature":"11","num_nodes":"41","size_leaf_vector":"1"}},{"base_weights":[2.0917438E-3,-4.216278E-2,2.0083535E-1,-1.4433098E-2,-1.6394232E-1,9.645816E-2,1.5402137E-1,7.185815E-2,-2.0629841E-1,2.3509872E-1,-7.5643815E-2,-5.5724584E-2,4.8018953E-1,-5.430068E-1,-6.0249995E-2,3.6966255E-1,-6.0596682E-2,-2.4457106E-1,1.2252232E-1,6.5783906E-1,-7.759316E-2,-1.9629386E-1,-6.1196286E-2,-2.0561607E-1,1.193224E-1,-3.6744803E-2,1.6805306E-1,-1.3448493E-1,2.6126351E-2,2.0999388E-1,-1.4238046E-2,6.67216E-2,2.664156E-1,1.5790839E-2,-1.4785069E-1],"categories":[],"categories_nodes":[],"categories_segments":[],"categories_sizes":[],"default_left":[0,0,0,0,0,0,0,0,0,0,0,0,0,0,0,0,0,0,0,0,0,0,0,0,0,0,0,0,0,0,0,0,0,0,0],"id":20,"left_children":[1,3,5,7,-1,9,-1,11,13,15,-1,17,19,21,23,25,-1,27,29,31,-1,-1,-1,33,-1,-1,-1,-1,-1,-1,-1,-1,-1,-1,-1],"loss_changes":[4.3475878E-1,5.580276E-1,2.4411842E-1,6.669033E-1,0E0,4.448927E-1,0E0,1.4806972E0,5.808366E-1,4.408512E-1,0E0,7.7592367E-1,1.0558587E0,4.252672E-3,7.360254E-1,5.480757E-1,0E0,7.885951E-1,1.2176428E0,3.7610793E-1,0E0,0E0,0E0,6.281369E-1,0E0,0E0,0E0,0E0,0E0,0E0,0E0,0E0,0E0,0E0,0E0],"parents":[2147483647,0,0,1,1,2,2,3,3,5,5,7,7,8,8,9,9,11,11,12,12,13,13,14,14,15,15,17,17,18,18,19,19,23,23],"right_children":[2,4,6,8,-1,10,-1,12,14,16,-1,18,20,22,24,26,-1,28,30,32,-1,-1,-1,34,-1,-1,-1,-1,-1,-1,-1,-1,-1,-1,-1],"split_conditions":[2.2011209E0,-4.9062297E-1,-7.423513E-2,8.920381E-2,-1.6394232E-1,-2.1701528E-1,1.5402137E-1,-1.1974E-1,2.6986167E-1,-1.3337977E-1,-7.5643815E-2,-6.2708007E-3,7.267605E-1,1.3053945E-1,1.0898669E0,-9.9419045E-1,-6.0596682E-2,-3.087844E-1,-4.5639327E-1,-3.0473666E-2,-7.759316E-2,-1.9629386E-1,-6.1196286E-2,8.104179E-1,1.193224E-1,-3.6744803E-2,1.6805306E-1,-1.3448493E-1,2.6126351E-2,2.0999388E-1,-1.4238046E-2,6.67216E-2,2.664156E-1,1.5790839E-2,-1.4785069E-1],"split_indices":[0,0,5,5,0,5,0,5,5,7,0,6,7,5,2,7,0,5,7,5,0,0,0,7,0,0,0,0,0,0,0,0,0,0,0],"split_type":[0,0,0,0,0,0,0,0,0,0,0,0,0,0,0,0,0,0,0,0,0,0,0,0,0,0,0,0,0,0,0,0,0,0,0],"sum_hessian":[4.746803E1,3.9467583E1,8.00045E0,3.8385563E1,1.0820189E0,6.9786468E0,1.021803E0,2.6908821E1,1.1476742E1,5.225897E0,1.7527496E0,2.116071E1,5.7481117E0,2.649785E0,8.826957E0,4.1136956E0,1.1122015E0,1.009418E1,1.1066529E1,4.7222824E0,1.0258292E0,1.2946957E0,1.3550892E0,7.1185746E0,1.7083818E0,1.2476928E0,2.8660028E0,6.0354424E0,4.0587378E0,1.8076625E0,9.258866E0,2.313162E0,2.4091206E0,4.1783595E0,2.9402149E0],"tree_param":{"num_deleted":"0","num_feature":"11","num_nodes":"35","size_leaf_vector":"1"}},{"base_weights":[4.3411055E-3,-2.505018E-1,3.801874E-2,-4.6065986E-2,-1.3663453E-1,3.3308994E-3,2.7868065E-1,-8.298547E-2,6.040168E-2,6.1586473E-2,-6.2171274E-1,4.8180795E-1,-1.85452E-2,-1.2894914E-2,2.1441737E-1,-4.6347664E-3,-2.828252E-1,1.9620186E-1,1.2458857E-2,-3.8932747E-1,5.221169E-2,2.1155582E-1,7.056393E-2,-1.7139767E-1,-2.4735383E-3,1.3391563E-1,-2.1825647E-3,8.3355226E-2,-9.350685E-2],"categories":[],"categories_nodes":[],"categories_segments":[],"categories_sizes":[],"default_left":[0,0,0,0,0,0,0,0,0,0,0,0,0,0,0,0,0,0,0,0,0,0,0,0,0,0,0,0,0],"id":21,"left_children":[1,3,5,7,-1,9,11,-1,-1,13,15,17,-1,19,21,-1,-1,-1,-1,23,25,-1,27,-1,-1,-1,-1,-1,-1],"loss_changes":[4.1420746E-1,2.1514294E-1,3.5400164E-1,2.800799E-1,0E0,1.4282371E0,3.994006E-1,0E0,0E0,4.105963E-1,6.364027E-1,2.3523027E-1,0E0,6.3381267E-1,7.830328E-1,0E0,0E0,0E0,0E0,2.5948662E-1,5.2432483E-1,0E0,8.974609E-1,0E0,0E0,0E0,0E0,0E0,0E0],"parents":[2147483647,0,0,1,1,2,2,3,3,5,5,6,6,9,9,10,10,11,11,13,13,14,14,19,19,20,20,22,22],"right_children":[2,4,6,8,-1,10,12,-1,-1,14,16,18,-1,20,22,-1,-1,-1,-1,24,26,-1,28,-1,-1,-1,-1,-1,-1],"split_conditions":[5.6526715E-1,2.8252605E-2,4.7488657E-1,-2.6502842E-2,-1.3663453E-1,3.1528974E-1,-7.5614387E-1,-8.298547E-2,6.040168E-2,-4.7998932E-1,-2.6155526E-2,-1.4523321E-1,-1.85452E-2,-4.5110998E-1,-1.2106838E-1,-4.6347664E-3,-2.828252E-1,1.9620186E-1,1.2458857E-2,1.3991734E0,-8.6272895E-1,2.1155582E-1,-1.9439498E-1,-1.7139767E-1,-2.4735383E-3,1.3391563E-1,-2.1825647E-3,8.3355226E-2,-9.350685E-2],"split_indices":[9,10,6,10,0,6,2,0,0,6,7,5,0,5,6,0,0,0,0,0,7,0,5,0,0,0,0,0,0],"split_type":[0,0,0,0,0,0,0,0,0,0,0,0,0,0,0,0,0,0,0,0,0,0,0,0,0,0,0,0,0],"sum_hessian":[4.615216E1,4.6356196E0,4.151654E1,2.9338512E0,1.7017683E0,3.7172512E1,4.3440256E0,1.4575281E0,1.4763231E0,3.4827934E1,2.3445792E0,2.4609268E0,1.883099E0,2.4031788E1,1.0796147E1,1.1745759E0,1.1700033E0,1.4200789E0,1.0408478E0,2.8092802E0,2.1222507E1,1.5627099E0,9.233438E0,1.5634071E0,1.2458731E0,1.9299951E0,1.9292511E1,6.1639824E0,3.0694551E0],"tree_param":{"num_deleted":"0","num_feature":"11","num_nodes":"29","size_leaf_vector":"1"}},{"base_weights":[1.7677764E-3,-1.11142844E-1,2.6658388E-2,1.2410025E-1,-5.664489E-4,-1.8921286E-1,5.9650034E-2,-3.0556312E-1,7.472129E-2,4.303164E-1,1.4013051E-2,-1.8076086E-1,-2.9119872E-2,2.1019097E-1,-2.8361497E-2,-4.0895913E-2,4.446485E-1,7.191564E-2,-9.2662096E-2,-4.5776792E-2,4.1558683E-2,2.0067611E-1,-4.8329965E-3],"categories":[],"categories_nodes":[],"categories_segments":[],"categories_sizes":[],"default_left":[0,0,0,0,0,0,0,0,0,0,0,0,0,0,0,0,0,0,0,0,0,0,0],"id":22,"left_children":[1,-1,3,-1,5,7,9,11,-1,13,15,-1,17,-1,-1,19,21,-1,-1,-1,-1,-1,-1],"loss_changes":[4.363173E-1,0E0,4.6460342E-1,0E0,4.9038333E-1,6.087299E-1,5.4764533E-1,6.969147E-1,0E0,5.7053375E-1,7.3172456E-1,0E0,4.920475E-1,0E0,0E0,5.758506E-1,3.7211668E-1,0E0,0E0,0E0,0E0,0E0,0E0],"parents":[2147483647,0,0,2,2,4,4,5,5,6,6,7,7,9,9,10,10,12,12,15,15,16,16],"right_children":[2,-1,4,-1,6,8,10,12,-1,14,16,-1,18,-1,-1,20,22,-1,-1,-1,-1,-1,-1],"split_conditions":[-5.94103E-1,-1.11142844E-1,-5.3169996E-1,1.2410025E-1,5.7279134E-1,1.2796636E-1,-2.5232534E0,-3.1448916E-1,7.472129E-2,3.0142647E-1,2.650898E0,-1.8076086E-1,-1.4790812E-1,2.1019097E-1,-2.8361497E-2,1.9529612E-1,-7.5614387E-1,7.191564E-2,-9.2662096E-2,-4.5776792E-2,4.1558683E-2,2.0067611E-1,-4.8329965E-3],"split_indices":[5,0,5,0,3,6,8,5,0,6,4,0,5,0,0,2,2,0,0,0,0,0,0],"split_type":[0,0,0,0,0,0,0,0,0,0,0,0,0,0,0,0,0,0,0,0,0,0,0],"sum_hessian":[4.502521E1,1.9517807E0,4.307343E1,1.8980203E0,4.117541E1,9.444727E0,3.1730682E1,7.702721E0,1.7420058E0,2.5544193E0,2.9176264E1,3.144787E0,4.557934E0,1.4649825E0,1.0894369E0,2.6679482E1,2.4967825E0,2.3972883E0,2.1606455E0,1.653554E1,1.0143941E1,1.3754894E0,1.1212932E0],"tree_param":{"num_deleted":"0","num_feature":"11","num_nodes":"23","size_leaf_vector":"1"}},{"base_weights":[7.6014907E-3,-2.2592312E-1,3.806788E-2,8.59696E-3,-3.1644356E-1,-5.527658E-2,1.1362715E-1,-1.710998E-1,-8.6591346E-5,1.1103096E-1,-1.3567331E-1,1.5812741E-1,-1.0510519E-1,-2.1353886E-1,1.804482E-1,-5.024816E-1,-1.2024046E-2,8.8547796E-2,1.6459379E-1,4.034347E-2,-1.4370123E-1,-1.8652312E-1,-4.1845288E-2,3.3659193E-1,-1.8541206E-1,-9.166513E-3,4.5383024E-1,-4.8836898E-2,6.5391235E-2,1.916301E-1,-7.090467E-4,-1.8125672E-3,-2.0705372E-1,3.3352263E-2,-2.4221346E-1,-1.250022E-2,1.8914202E-1],"categories":[],"categories_nodes":[],"categories_segments":[],"categories_sizes":[],"default_left":[0,0,0,0,0,0,0,0,0,0,0,0,0,0,0,0,0,0,0,0,0,0,0,0,0,0,0,0,0,0,0,0,0,0,0,0,0],"id":23,"left_children":[1,3,5,-1,7,9,11,-1,-1,13,15,17,-1,19,-1,21,23,25,-1,27,-1,-1,-1,29,31,33,35,-1,-1,-1,-1,-1,-1,-1,-1,-1,-1],"loss_changes":[3.322778E-1,1.3338438E-1,2.961601E-1,0E0,3.2593414E-1,2.6989147E-1,5.311323E-1,0E0,0E0,1.204705E0,5.9709334E-1,5.414239E-1,0E0,3.432684E-1,0E0,5.735296E-2,7.254932E-1,7.0454776E-1,0E0,1.5741059E-1,0E0,0E0,0E0,4.1109633E-1,7.1752226E-1,1.6709908E0,3.9047128E-1,0E0,0E0,0E0,0E0,0E0,0E0,0E0,0E0,0E0,0E0],"parents":[2147483647,0,0,1,1,2,2,4,4,5,5,6,6,9,9,10,10,11,11,13,13,15,15,16,16,17,17,19,19,23,23,24,24,25,25,26,26],"right_children":[2,4,6,-1,8,10,12,-1,-1,14,16,18,-1,20,-1,22,24,26,-1,28,-1,-1,-1,30,32,34,36,-1,-1,-1,-1,-1,-1,-1,-1,-1,-1],"split_conditions":[5.6526715E-1,-4.9787524E-1,7.771808E-1,8.59696E-3,1.4115915E-1,-3.5216618E-1,2.1466238E0,-1.710998E-1,-8.6591346E-5,-4.4527012E-1,-3.087844E-1,5.169709E-1,-1.0510519E-1,-4.444422E-1,1.804482E-1,1.1321619E0,-1.7546889E-1,3.9982197E-1,1.6459379E-1,-5.028344E-1,-1.4370123E-1,-1.8652312E-1,-4.1845288E-2,-1.3279047E0,1.3236202E-1,2.821228E-1,-1.1603433E-1,-4.8836898E-2,6.5391235E-2,1.916301E-1,-7.090467E-4,-1.8125672E-3,-2.0705372E-1,3.3352263E-2,-2.4221346E-1,-1.250022E-2,1.8914202E-1],"split_indices":[9,5,1,0,7,5,5,0,0,5,5,5,0,7,0,10,5,6,0,5,0,0,0,10,6,6,7,0,0,0,0,0,0,0,0,0,0],"split_type":[0,0,0,0,0,0,0,0,0,0,0,0,0,0,0,0,0,0,0,0,0,0,0,0,0,0,0,0,0,0,0,0,0,0,0,0,0],"sum_hessian":[4.4494476E1,4.394579E0,4.00999E1,1.3319705E0,3.0626085E0,1.8058819E1,2.204108E1,1.2526771E0,1.8099315E0,5.760889E0,1.229793E1,2.0713621E1,1.3274587E0,3.806506E0,1.954383E0,2.3280258E0,9.969904E0,1.8622374E1,2.091249E0,2.3791711E0,1.4273349E0,1.2157782E0,1.1122475E0,2.9989386E0,6.9709654E0,1.5461322E1,3.161051E0,1.1488678E0,1.2303033E0,1.1178615E0,1.8810772E0,5.889933E0,1.0810323E0,1.4183671E1,1.2776507E0,1.0315602E0,2.1294909E0],"tree_param":{"num_deleted":"0","num_feature":"11","num_nodes":"37","size_leaf_vector":"1"}},{"base_weights":[-1.0743393E-3,-8.816385E-2,1.936498E-2,2.5713032E-1,-1.8228065E-2,-2.2390983E-1,1.930445E-1,4.8328675E-2,-2.410028E-1,7.5869192E-3,-1.1620842E-1,-1.555002E-1,9.90583E-2,-5.950404E-1,5.030035E-2,-2.3037495E-1,2.024873E-1,-5.46594E-2,-2.2353697E-1,3.2729113E-1,-2.3000634E-1,7.53346E-2,-1.3612403E-1,1.1108304E-1,-1.6998967E-2,1.20146506E-1,2.9310849E-2,-1.1204254E-1,-3.838766E-3],"categories":[],"categories_nodes":[],"categories_segments":[],"categories_sizes":[],"default_left":[0,0,0,0,0,0,0,0,0,0,0,0,0,0,0,0,0,0,0,0,0,0,0,0,0,0,0,0,0],"id":24,"left_children":[1,-1,3,5,7,9,-1,11,13,-1,-1,-1,15,17,19,21,23,-1,-1,25,27,-1,-1,-1,-1,-1,-1,-1,-1],"loss_changes":[2.7100882E-1,0E0,3.8347417E-1,1.2316415E0,5.6805265E-1,1.4618151E-1,0E0,9.05886E-1,9.374324E-1,0E0,0E0,0E0,1.0049046E0,1.1517668E-1,5.2168036E-1,8.869913E-1,9.7481644E-1,0E0,0E0,1.6404867E-2,1.0257438E-1,0E0,0E0,0E0,0E0,0E0,0E0,0E0,0E0],"parents":[2147483647,0,0,2,2,3,3,4,4,5,5,7,7,8,8,12,12,13,13,14,14,15,15,16,16,19,19,20,20],"right_children":[2,-1,4,6,8,10,-1,12,14,-1,-1,-1,16,18,20,22,24,-1,-1,26,28,-1,-1,-1,-1,-1,-1,-1,-1],"split_conditions":[-5.94103E-1,-8.816385E-2,-4.9349064E-1,-4.7998932E-1,1.6044544E-1,-9.2248416E-1,1.930445E-1,-4.4527012E-1,3.3456308E-1,7.5869192E-3,-1.1620842E-1,-1.555002E-1,-4.8111555E-1,-1.9735989E-1,-7.5614387E-1,-8.6272895E-1,1.0360075E-1,-5.46594E-2,-2.2353697E-1,-1.4523321E-1,-9.8671794E-2,7.53346E-2,-1.3612403E-1,1.1108304E-1,-1.6998967E-2,1.20146506E-1,2.9310849E-2,-1.1204254E-1,-3.838766E-3],"split_indices":[5,0,5,6,6,7,0,5,6,0,0,0,7,5,2,7,5,0,0,5,10,0,0,0,0,0,0,0,0],"split_type":[0,0,0,0,0,0,0,0,0,0,0,0,0,0,0,0,0,0,0,0,0,0,0,0,0,0,0,0,0],"sum_hessian":[4.333241E1,1.9545268E0,4.1377884E1,4.851798E0,3.6526085E1,2.3483515E0,2.5034466E0,2.8726686E1,7.7993975E0,1.2649997E0,1.0833517E0,1.603016E0,2.712367E1,3.0499418E0,4.7494555E0,6.187715E0,2.0935955E1,1.4034271E0,1.6465147E0,2.3045497E0,2.4449058E0,1.9215356E0,4.2661796E0,1.2447739E1,8.488217E0,1.1830078E0,1.121542E0,1.0391351E0,1.4057707E0],"tree_param":{"num_deleted":"0","num_feature":"11","num_nodes":"29","size_leaf_vector":"1"}},{"base_weights":[-8.700996E-3,-2.4459437E-1,2.3033902E-2,-3.2696128E-1,1.3923676E-2,1.5023425E-1,-3.0800637E-2,-4.977438E-2,-1.7104205E-1,4.1031465E-1,-1.183368E-1,-1.5191038E-1,1.4524373E-1,-6.416559E-2,4.2711966E-2,9.854269E-2,2.1667828E-1,-3.910187E-1,1.7074472E-1,-1.9152458E-1,-7.579546E-2,1.890995E-1,3.8647894E-2,-1.0349489E-1,9.989854E-2,-2.2435431E-1,8.573339E-2,1.3123216E-1,-7.69741E-2,7.926801E-2,-3.0403927E-1,2.0418718E-1,-3.0053544E-1,-7.298462E-2,2.5831154E-2,-4.890495E-2,9.884939E-2,-1.5357924E-1,8.610304E-3,-1.803562E-2,1.446686E-1,-2.055948E-1,6.884529E-2],"categories":[],"categories_nodes":[],"categories_segments":[],"categories_sizes":[],"default_left":[0,0,0,0,0,0,0,0,0,0,0,0,0,0,0,0,0,0,0,0,0,0,0,0,0,0,0,0,0,0,0,0,0,0,0,0,0,0,0,0,0,0,0],"id":25,"left_children":[1,3,5,7,-1,9,11,13,-1,15,17,19,21,-1,-1,23,-1,25,27,-1,29,-1,31,33,-1,-1,-1,-1,-1,35,37,39,41,-1,-1,-1,-1,-1,-1,-1,-1,-1,-1],"loss_changes":[3.312211E-1,1.4085409E-1,2.7339667E-1,2.554649E-1,0E0,8.7569916E-1,6.277308E-1,1.2705529E-1,0E0,5.3568435E-1,5.871752E-1,5.929143E-1,6.0074747E-1,0E0,0E0,2.371405E-1,0E0,1.1075764E0,5.567789E-1,0E0,5.9427464E-1,0E0,6.776759E-1,1.0207857E-1,0E0,0E0,0E0,0E0,0E0,6.833914E-1,4.7981834E-1,6.148276E-1,9.7397923E-1,0E0,0E0,0E0,0E0,0E0,0E0,0E0,0E0,0E0,0E0],"parents":[2147483647,0,0,1,1,2,2,3,3,5,5,6,6,7,7,9,9,10,10,11,11,12,12,15,15,17,17,18,18,20,20,22,22,23,23,29,29,30,30,31,31,32,32],"right_children":[2,4,6,8,-1,10,12,14,-1,16,18,20,22,-1,-1,24,-1,26,28,-1,30,-1,32,34,-1,-1,-1,-1,-1,36,38,40,42,-1,-1,-1,-1,-1,-1,-1,-1,-1,-1],"split_conditions":[5.6526715E-1,1.1648822E0,-3.5216618E-1,2.8252605E-2,1.3923676E-2,-4.3225878E-1,4.5550764E-2,1.1545559E-1,-1.7104205E-1,-4.7998932E-1,1.3371454E-1,-3.3447975E-1,1.2735105E-1,-6.416559E-2,4.2711966E-2,-4.5110998E-1,2.1667828E-1,-4.4527012E-1,-7.5614387E-1,-1.9152458E-1,2.8252605E-2,1.890995E-1,8.256489E-1,1.3991734E0,9.989854E-2,-2.2435431E-1,8.573339E-2,1.3123216E-1,-7.69741E-2,-2.8413445E-1,-2.1770923E-1,-3.5925594E-1,2.6508794E0,-7.298462E-2,2.5831154E-2,-4.890495E-2,9.884939E-2,-1.5357924E-1,8.610304E-3,-1.803562E-2,1.446686E-1,-2.055948E-1,6.884529E-2],"split_indices":[9,2,5,10,0,7,7,6,0,6,6,5,7,0,0,5,0,5,2,0,10,0,5,0,0,0,0,0,0,10,2,2,7,0,0,0,0,0,0,0,0,0,0],"split_type":[0,0,0,0,0,0,0,0,0,0,0,0,0,0,0,0,0,0,0,0,0,0,0,0,0,0,0,0,0,0,0,0,0,0,0,0,0,0,0,0,0,0,0],"sum_hessian":[4.2492504E1,4.243333E0,3.8249172E1,3.2109487E0,1.0323839E0,1.0841704E1,2.7407467E1,2.063526E0,1.1474228E0,5.2397933E0,5.601911E0,1.6318348E1,1.1089119E1,1.0519437E0,1.0115824E0,3.278761E0,1.9610324E0,2.7012649E0,2.9006462E0,1.2082218E0,1.5110126E1,1.1126183E0,9.9765005E0,2.0611491E0,1.2176118E0,1.6999925E0,1.0012723E0,1.7714213E0,1.129225E0,9.386121E0,5.7240047E0,6.9718666E0,3.0046337E0,1.0234438E0,1.0377054E0,4.945849E0,4.440272E0,3.1914816E0,2.5325232E0,3.9760325E0,2.995834E0,1.5710739E0,1.4335597E0],"tree_param":{"num_deleted":"0","num_feature":"11","num_nodes":"43","size_leaf_vector":"1"}},{"base_weights":[-7.656668E-3,-2.1594247E-1,2.0217547E-2,-4.092508E-2,-1.1719007E-1,-5.920021E-3,2.4620788E-1,-1.01553455E-1,1.0424683E-1,3.5414275E-2,-1.7869206E-1,1.520173E-1,-9.031302E-3,-3.6581904E-3,1.555261E-1,-1.094103E-1,1.2531047E-1,1.8679896E-2,-1.1592027E-1,-3.758999E-2,8.3755076E-2],"categories":[],"categories_nodes":[],"categories_segments":[],"categories_sizes":[],"default_left":[0,0,0,0,0,0,0,0,0,0,0,0,0,0,0,0,0,0,0,0,0],"id":26,"left_children":[1,3,5,7,-1,9,11,-1,-1,13,-1,-1,-1,15,-1,17,19,-1,-1,-1,-1],"loss_changes":[2.4896511E-1,1.3866483E-1,2.263419E-1,5.3880507E-1,0E0,8.7671816E-1,3.01053E-1,0E0,0E0,6.387642E-1,0E0,0E0,0E0,4.5306334E-1,0E0,8.9113104E-1,6.126367E-1,0E0,0E0,0E0,0E0],"parents":[2147483647,0,0,1,1,2,2,3,3,5,5,6,6,9,9,13,13,15,15,16,16],"right_children":[2,4,6,8,-1,10,12,-1,-1,14,-1,-1,-1,16,-1,18,20,-1,-1,-1,-1],"split_conditions":[5.6526715E-1,1.6506125E-1,1.3005124E0,-1.3371496E-1,-1.1719007E-1,8.256489E-1,2.1466238E0,-1.01553455E-1,1.0424683E-1,5.169709E-1,-1.7869206E-1,1.520173E-1,-9.031302E-3,-4.7998932E-1,1.555261E-1,-1.9272353E-1,-9.9652976E-2,1.8679896E-2,-1.1592027E-1,-3.758999E-2,8.3755076E-2],"split_indices":[9,7,5,7,0,5,5,0,0,5,0,0,0,6,0,7,10,0,0,0,0],"split_type":[0,0,0,0,0,0,0,0,0,0,0,0,0,0,0,0,0,0,0,0,0],"sum_hessian":[4.1130142E1,4.0582747E0,3.707187E1,2.6438038E0,1.4144708E0,3.410156E1,2.9703104E0,1.5696695E0,1.0741342E0,3.2746273E1,1.3552839E0,1.099645E0,1.8706654E0,3.1213688E1,1.5325851E0,1.7233864E1,1.3979824E1,1.11181345E1,6.11573E0,5.3888273E0,8.590997E0],"tree_param":{"num_deleted":"0","num_feature":"11","num_nodes":"21","size_leaf_vector":"1"}},{"base_weights":[-6.2115532E-3,2.9914862E-2,-1.6987258E-1,-1.937812E-2,3.1756637E-1,-1.9545898E-1,3.460563E-2,-1.3477471E-1,1.283115E-1,1.8835174E-1,3.1702793E-3,2.6338685E-1,-2.2240786E-1,-1.1657627E-2,-1.8304394E-1,4.1285327E-1,-3.6493175E-2,-1.468842E-1,1.3433844E-1,-2.6105654E-3,1.3584025E-1,6.341035E-3,-9.922885E-2,-2.9108876E-1,1.4493679E-1,6.833757E-1,-2.8094294E-2,-1.7697181E-1,1.4774695E-1,3.3520482E-2,-1.8580446E-1,4.4516553E-3,1.6399579E-1,5.2822854E-2,2.5209054E-1,-2.0301177E-1,1.0914336E-2],"categories":[],"categories_nodes":[],"categories_segments":[],"categories_sizes":[],"default_left":[0,0,0,0,0,0,0,0,0,0,0,0,0,0,0,0,0,0,0,0,0,0,0,0,0,0,0,0,0,0,0,0,0,0,0,0,0],"id":27,"left_children":[1,3,5,7,9,-1,11,13,15,-1,17,19,21,23,-1,25,27,-1,-1,-1,-1,-1,-1,29,31,33,-1,35,-1,-1,-1,-1,-1,-1,-1,-1,-1],"loss_changes":[2.502327E-1,4.9981648E-1,7.75717E-1,5.3991455E-1,5.004705E-1,0E0,4.3006846E-1,1.0289379E0,6.6983545E-1,0E0,1.0000271E0,1.9979963E-1,9.981613E-2,7.020578E-1,0E0,7.7681327E-1,8.124689E-1,0E0,0E0,0E0,0E0,0E0,0E0,8.293046E-1,5.318563E-1,1.3159752E-1,0E0,9.2534685E-1,0E0,0E0,0E0,0E0,0E0,0E0,0E0,0E0,0E0],"parents":[2147483647,0,0,1,1,2,2,3,3,4,4,6,6,7,7,8,8,10,10,11,11,12,12,13,13,15,15,16,16,23,23,24,24,25,25,27,27],"right_children":[2,4,6,8,10,-1,12,14,16,-1,18,20,22,24,-1,26,28,-1,-1,-1,-1,-1,-1,30,32,34,-1,36,-1,-1,-1,-1,-1,-1,-1,-1,-1],"split_conditions":[3.1528974E-1,1.2999512E-1,4.1808093E-1,-1.1974E-1,-3.5216618E-1,-1.9545898E-1,-7.5614387E-1,-1.5244319E-1,8.920381E-2,1.8835174E-1,-5.446554E-3,9.743029E-1,1.2099743E0,-4.4527012E-1,-1.8304394E-1,2.8252605E-2,2.5488582E0,-1.468842E-1,1.3433844E-1,-2.6105654E-3,1.3584025E-1,6.341035E-3,-9.922885E-2,-6.2433076E-1,-7.746776E-2,-1.2765536E-1,-2.8094294E-2,3.2862875E-1,1.4774695E-1,3.3520482E-2,-1.8580446E-1,4.4516553E-3,1.6399579E-1,5.2822854E-2,2.5209054E-1,-2.0301177E-1,1.0914336E-2],"split_indices":[6,6,6,5,5,0,2,5,5,0,7,6,6,5,0,10,4,0,0,0,0,0,0,7,6,7,0,5,0,0,0,0,0,0,0,0,0],"split_type":[0,0,0,0,0,0,0,0,0,0,0,0,0,0,0,0,0,0,0,0,0,0,0,0,0,0,0,0,0,0,0,0,0,0,0,0,0],"sum_hessian":[4.046327E1,3.381597E1,6.6472983E0,2.966509E1,4.150882E0,1.3294399E0,5.317858E0,1.6702284E1,1.2962806E1,1.5873657E0,2.563516E0,2.8003352E0,2.517523E0,1.4080168E1,2.622116E0,4.2022862E0,8.760519E0,1.1679137E0,1.3956023E0,1.5409114E0,1.2594237E0,1.0230312E0,1.4944918E0,4.7483025E0,9.331865E0,2.5116193E0,1.6906667E0,7.44804E0,1.3124794E0,2.4281774E0,2.3201253E0,7.8322773E0,1.4995884E0,1.0947195E0,1.4168998E0,1.5786409E0,5.8693986E0],"tree_param":{"num_deleted":"0","num_feature":"11","num_nodes":"37","size_leaf_vector":"1"}},{"base_weights":[-1.3359456E-3,-2.2876978E-1,2.821887E-2,5.1307096E-3,-8.955855E-2,4.593835E-2,-7.2267905E-2,1.5025279E-1,-4.6190567E-2,2.9704887E-1,-1.0397806E-1,-1.918375E-1,1.2488012E-1,-2.758779E-2,4.9569815E-1,-1.5701523E-1,1.6832799E-1,-6.287735E-2,-1.91133E-1,2.822094E-1,-2.4041265E-1,6.06822E-2,-1.1910411E-1,-2.9305639E-3,1.8194565E-1,-4.3321863E-2,1.3419876E-1,-5.9252735E-2,1.0394133E-1,6.583939E-3,1.4569573E-1,-1.2282544E-1,1.1334398E-2],"categories":[],"categories_nodes":[],"categories_segments":[],"categories_sizes":[],"default_left":[0,0,0,0,0,0,0,0,0,0,0,0,0,0,0,0,0,0,0,0,0,0,0,0,0,0,0,0,0,0,0,0,0],"id":28,"left_children":[1,3,5,-1,-1,7,-1,9,11,13,15,17,19,21,23,-1,25,27,-1,29,31,-1,-1,-1,-1,-1,-1,-1,-1,-1,-1,-1,-1],"loss_changes":[2.7904424E-1,8.6980864E-2,1.8645029E-1,0E0,0E0,3.4664077E-1,0E0,6.58329E-1,5.106844E-1,7.17734E-1,8.755479E-1,5.8847153E-1,6.1894155E-1,5.1268387E-1,3.881619E-1,0E0,4.9538845E-1,5.973384E-1,0E0,3.6858088E-1,1.7657718E-1,0E0,0E0,0E0,0E0,0E0,0E0,0E0,0E0,0E0,0E0,0E0,0E0],"parents":[2147483647,0,0,1,1,2,2,5,5,7,7,8,8,9,9,10,10,11,11,12,12,13,13,14,14,16,16,17,17,19,19,20,20],"right_children":[2,4,6,-1,-1,8,-1,10,12,14,16,18,20,22,24,-1,26,28,-1,30,32,-1,-1,-1,-1,-1,-1,-1,-1,-1,-1,-1,-1],"split_conditions":[5.6526715E-1,-6.138489E-1,4.5847884E-1,5.1307096E-3,-8.955855E-2,-1.9272353E-1,-7.2267905E-2,-2.0717095E-1,3.2042488E-1,-7.744398E-1,-1.4476794E-1,1.7320466E-1,8.256489E-1,-3.5216618E-1,-5.290303E-1,-1.5701523E-1,5.663733E-1,2.0303096E-1,-1.91133E-1,1.0360075E-1,2.6508794E0,6.06822E-2,-1.1910411E-1,-2.9305639E-3,1.8194565E-1,-4.3321863E-2,1.3419876E-1,-5.9252735E-2,1.0394133E-1,6.583939E-3,1.4569573E-1,-1.2282544E-1,1.1334398E-2],"split_indices":[9,1,8,0,0,7,0,5,7,7,5,7,5,5,5,0,1,6,0,5,7,0,0,0,0,0,0,0,0,0,0,0,0],"split_type":[0,0,0,0,0,0,0,0,0,0,0,0,0,0,0,0,0,0,0,0,0,0,0,0,0,0,0,0,0,0,0,0,0],"sum_hessian":[3.955313E1,3.7735927E0,3.5779537E1,1.0008441E0,2.7727485E0,3.4347263E1,1.4322748E0,1.5812458E1,1.8534805E1,9.91753E0,5.894928E0,9.945752E0,8.589052E0,4.0917816E0,5.8257484E0,1.9576737E0,3.9372544E0,8.597073E0,1.3486798E0,6.1623926E0,2.4266598E0,2.8012624E0,1.2905191E0,1.2112504E0,4.6144977E0,2.08386E0,1.8533945E0,6.858774E0,1.7382979E0,3.1897054E0,2.9726872E0,1.216142E0,1.2105178E0],"tree_param":{"num_deleted":"0","num_feature":"11","num_nodes":"33","size_leaf_vector":"1"}},{"base_weights":[-4.6732454E-3,-4.1652624E-2,1.4084154E-1,-1.8741192E-1,3.6171615E-2,2.973837E-1,-1.2963271E-1,-9.704651E-2,-1.6570486E-1,1.6532953E-1,-1.9172192E-1,4.7192004E-1,-3.4862757E-2,-7.941215E-2,3.2458965E-2,-2.317007E-1,1.4519516E-1,-1.1229829E-2,4.3011278E-1,-3.4945026E-1,9.551496E-2,1.8439298E-2,1.9893412E-1,1.1743731E-2,-2.1701185E-1,2.9541284E-1,-4.1707225E-2,1.5021808E-1,-1.3859598E-1,5.9357274E-1,-4.010863E-2,-6.2954944E-1,4.5019574E-3,-8.4805414E-2,1.448881E-1,-3.416626E-4,1.35389E-1,-8.480682E-2,7.9374224E-2,5.2645676E-2,2.4478248E-1,-2.3767485E-1,-5.8717858E-2,-1.17543615E-1,1.2740037E-1],"categories":[],"categories_nodes":[],"categories_segments":[],"categories_sizes":[],"default_left":[0,0,0,0,0,0,0,0,0,0,0,0,0,0,0,0,0,0,0,0,0,0,0,0,0,0,0,0,0,0,0,0,0,0,0,0,0,0,0,0,0,0,0,0,0],"id":29,"left_children":[1,3,5,7,9,11,13,15,-1,17,19,21,-1,-1,-1,23,25,27,29,31,-1,-1,-1,33,-1,35,-1,37,-1,39,-1,41,43,-1,-1,-1,-1,-1,-1,-1,-1,-1,-1,-1,-1],"loss_changes":[2.1860155E-1,3.7312058E-1,3.8740236E-1,3.224387E-1,6.7607397E-1,4.5348042E-1,1.4804333E-1,3.7134117E-1,0E0,6.831676E-1,7.856715E-1,2.7951038E-1,0E0,0E0,0E0,8.5106707E-1,2.2523563E-1,7.738314E-1,6.166643E-1,6.8485093E-1,0E0,0E0,0E0,9.262565E-1,0E0,1.457631E-1,0E0,4.6500427E-1,0E0,2.9410517E-1,0E0,1.16493344E-1,8.3776677E-1,0E0,0E0,0E0,0E0,0E0,0E0,0E0,0E0,0E0,0E0,0E0,0E0],"parents":[2147483647,0,0,1,1,2,2,3,3,4,4,5,5,6,6,7,7,9,9,10,10,11,11,15,15,16,16,17,17,18,18,19,19,23,23,25,25,27,27,29,29,31,31,32,32],"right_children":[2,4,6,8,10,12,14,16,-1,18,20,22,-1,-1,-1,24,26,28,30,32,-1,-1,-1,34,-1,36,-1,38,-1,40,-1,42,44,-1,-1,-1,-1,-1,-1,-1,-1,-1,-1,-1,-1],"split_conditions":[1.2776129E0,-2.6502842E-2,2.8252605E-2,-1.3279047E0,1.2735105E-1,8.88262E-2,-1.1603433E-1,-9.859684E-2,-1.6570486E-1,-1.8648118E-1,1.5382138E0,-3.122883E-1,-3.4862757E-2,-7.941215E-2,3.2458965E-2,-1.9627441E-1,1.5400228E-1,-2.8659296E-1,-3.9563236E-1,-4.7998932E-1,9.551496E-2,1.8439298E-2,1.9893412E-1,-2.9263563E-2,-2.1701185E-1,3.7536082E-1,-4.1707225E-2,-1.5873349E0,-1.3859598E-1,5.663733E-1,-4.010863E-2,1.0700561E0,-3.631352E-2,-8.4805414E-2,1.448881E-1,-3.416626E-4,1.35389E-1,-8.480682E-2,7.9374224E-2,5.2645676E-2,2.4478248E-1,-2.3767485E-1,-5.8717858E-2,-1.17543615E-1,1.2740037E-1],"split_indices":[2,10,10,10,7,5,7,7,0,5,7,5,0,0,0,7,6,5,4,6,0,0,0,6,0,7,0,8,0,1,0,10,5,0,0,0,0,0,0,0,0,0,0,0,0],"split_type":[0,0,0,0,0,0,0,0,0,0,0,0,0,0,0,0,0,0,0,0,0,0,0,0,0,0,0,0,0,0,0,0,0,0,0,0,0,0,0,0,0,0,0,0,0],"sum_hessian":[3.8534157E1,3.1294983E1,7.239173E0,1.0402914E1,2.0892067E1,4.52231E0,2.7168634E0,9.352889E0,1.0500251E0,1.3509905E1,7.3821626E0,3.0810711E0,1.4412386E0,1.6606746E0,1.0561887E0,6.0393353E0,3.313554E0,8.679765E0,4.83014E0,5.879211E0,1.5029519E0,1.3990529E0,1.6820183E0,4.6921825E0,1.3471525E0,2.1420422E0,1.1715119E0,6.8816876E0,1.7980771E0,3.7035968E0,1.1265434E0,2.8473444E0,3.0318666E0,3.1340454E0,1.5581373E0,1.0800536E0,1.0619886E0,1.130486E0,5.7512016E0,1.9071081E0,1.7964888E0,1.4698805E0,1.3774638E0,1.5949454E0,1.4369211E0],"tree_param":{"num_deleted":"0","num_feature":"11","num_nodes":"45","size_leaf_vector":"1"}},{"base_weights":[-6.7199245E-3,2.8141353E-2,-1.6462184E-1,6.4874435E-4,1.13987304E-1,-1.6460824E-1,9.964483E-3,-1.5873034E-1,8.772181E-2,2.2041994E-1,-2.1137176E-1,-3.0038065E-1,1.09292485E-1,3.3010393E-1,9.164177E-3,-9.685543E-3,1.1981713E-1,-8.644696E-2,-9.708243E-3,-7.443848E-2,-2.0367308E-1,-9.3744546E-2,4.004115E-1,1.864843E-1,5.7009477E-2,-4.4249472E-1,1.3047794E-1,-5.5443723E-2,3.705096E-2,1.6015646E-1,2.148443E-2,8.1852235E-2,-7.361564E-2,-1.733404E-1,-1.904054E-2,7.671885E-2,-4.8401546E-2],"categories":[],"categories_nodes":[],"categories_segments":[],"categories_sizes":[],"default_left":[0,0,0,0,0,0,0,0,0,0,0,0,0,0,0,0,0,0,0,0,0,0,0,0,0,0,0,0,0,0,0,0,0,0,0,0,0],"id":30,"left_children":[1,3,5,7,-1,-1,9,11,13,15,17,19,21,23,25,-1,-1,-1,-1,27,-1,-1,29,-1,31,33,35,-1,-1,-1,-1,-1,-1,-1,-1,-1,-1],"loss_changes":[2.1650693E-1,3.1297362E-1,4.820124E-1,4.4465238E-1,0E0,0E0,3.1993467E-1,4.6266416E-1,3.9142543E-1,1.7107512E-1,3.7004814E-2,6.057753E-1,6.9581646E-1,3.659672E-1,9.713306E-1,0E0,0E0,0E0,0E0,1.5235128E-1,0E0,0E0,1.0165185E-1,0E0,3.0871573E-1,1.5605599E-1,5.498857E-1,0E0,0E0,0E0,0E0,0E0,0E0,0E0,0E0,0E0,0E0],"parents":[2147483647,0,0,1,1,2,2,3,3,6,6,7,7,8,8,9,9,10,10,11,11,12,12,13,13,14,14,19,19,22,22,24,24,25,25,26,26],"right_children":[2,4,6,8,-1,-1,10,12,14,16,18,20,22,24,26,-1,-1,-1,-1,28,-1,-1,30,-1,32,34,36,-1,-1,-1,-1,-1,-1,-1,-1,-1,-1],"split_conditions":[3.1528974E-1,2.4597332E-1,4.1808093E-1,-3.087844E-1,1.13987304E-1,-1.6460824E-1,-7.5614387E-1,1.9529612E-1,-1.5244319E-1,9.743029E-1,2.965228E-1,-3.5216618E-1,-4.3242246E-1,-1.3279047E0,-1.1974E-1,-9.685543E-3,1.1981713E-1,-8.644696E-2,-9.708243E-3,-4.7998932E-1,-2.0367308E-1,-9.3744546E-2,-3.4069324E-1,1.864843E-1,-4.9062297E-1,-1.5761706E-1,8.104179E-1,-5.5443723E-2,3.705096E-2,1.6015646E-1,2.148443E-2,8.1852235E-2,-7.361564E-2,-1.733404E-1,-1.904054E-2,7.671885E-2,-4.8401546E-2],"split_indices":[6,6,6,5,0,0,2,2,5,6,7,5,5,10,5,0,0,0,0,6,0,0,5,0,0,7,7,0,0,0,0,0,0,0,0,0,0],"split_type":[0,0,0,0,0,0,0,0,0,0,0,0,0,0,0,0,0,0,0,0,0,0,0,0,0,0,0,0,0,0,0,0,0,0,0,0,0],"sum_hessian":[3.7489952E1,3.1383045E1,6.106908E0,3.0037607E1,1.3454382E0,1.2388154E0,4.8680925E0,1.0321717E1,1.971589E1,2.4975042E0,2.3705883E0,6.673852E0,3.6478648E0,4.0421524E0,1.56737385E1,1.375257E0,1.1222471E0,1.2322946E0,1.1382937E0,4.928632E0,1.7452204E0,1.4596854E0,2.1881795E0,1.3378729E0,2.7042794E0,2.758001E0,1.2915737E1,3.2068143E0,1.7218174E0,1.1128592E0,1.0753202E0,1.6350284E0,1.0692511E0,1.6459765E0,1.1120244E0,9.123479E0,3.792258E0],"tree_param":{"num_deleted":"0","num_feature":"11","num_nodes":"37","size_leaf_vector":"1"}},{"base_weights":[-7.875612E-3,-2.3676904E-1,2.2951145E-2,-6.7276186E-3,-3.017956E-1,-2.1294326E-2,2.0835792E-1,-1.664179E-2,-1.18288964E-1,-8.980366E-2,7.9671904E-2,-4.386288E-2,9.397622E-2,-1.8072303E-2,-1.7906773E-1,2.835921E-1,-5.092532E-2,-8.394153E-2,1.00191675E-1,-2.6919747E-2,4.17246E-1,-3.4834516E-1,1.7165515E-1,-8.115602E-2,8.961098E-3,1.6175681E-1,1.633144E-2,-1.5719332E-1,-3.2541212E-3,1.336767E-1,-2.1254782E-2],"categories":[],"categories_nodes":[],"categories_segments":[],"categories_sizes":[],"default_left":[0,0,0,0,0,0,0,0,0,0,0,0,0,0,0,0,0,0,0,0,0,0,0,0,0,0,0,0,0,0,0],"id":31,"left_children":[1,3,5,-1,7,9,11,-1,-1,13,15,-1,-1,17,-1,19,21,23,-1,-1,25,27,29,-1,-1,-1,-1,-1,-1,-1,-1],"loss_changes":[2.711907E-1,5.6772232E-2,2.8421366E-1,0E0,5.5992752E-2,2.0388807E-1,2.936341E-1,0E0,0E0,6.2264353E-1,3.3474213E-1,0E0,0E0,4.0572166E-1,0E0,2.793226E-1,6.012743E-1,3.163985E-1,0E0,0E0,1.3640904E-1,2.2141531E-1,3.8685313E-1,0E0,0E0,0E0,0E0,0E0,0E0,0E0,0E0],"parents":[2147483647,0,0,1,1,2,2,4,4,5,5,6,6,9,9,10,10,13,13,15,15,16,16,17,17,20,20,21,21,22,22],"right_children":[2,4,6,-1,8,10,12,-1,-1,14,16,-1,-1,18,-1,20,22,24,-1,-1,26,28,30,-1,-1,-1,-1,-1,-1,-1,-1],"split_conditions":[5.6526715E-1,-4.9787524E-1,2.0911734E0,-6.7276186E-3,-5.4623228E-2,2.313134E-1,-9.9419045E-1,-1.664179E-2,-1.18288964E-1,-7.5614387E-1,-2.4630548E-1,-4.386288E-2,9.397622E-2,4.1808093E-1,-1.7906773E-1,-4.701495E-1,-3.0473666E-2,-3.087844E-1,1.00191675E-1,-2.6919747E-2,9.69762E-3,-4.7998932E-1,4.5445213E-1,-8.115602E-2,8.961098E-3,1.6175681E-1,1.633144E-2,-1.5719332E-1,-3.2541212E-3,1.336767E-1,-2.1254782E-2],"split_indices":[9,5,0,0,6,2,7,0,0,2,5,0,0,6,0,5,5,5,0,0,7,6,7,0,0,0,0,0,0,0,0],"split_type":[0,0,0,0,0,0,0,0,0,0,0,0,0,0,0,0,0,0,0,0,0,0,0,0,0,0,0,0,0,0,0],"sum_hessian":[3.6663696E1,3.5587554E0,3.3104942E1,1.1413728E0,2.4173825E0,2.744146E1,5.6634817E0,1.096687E0,1.3206955E0,1.6414305E1,1.1027156E1,1.2030635E0,4.460418E0,1.5287427E1,1.1268771E0,3.8476954E0,7.1794605E0,1.3519436E1,1.7679913E0,1.1009955E0,2.7466998E0,2.831235E0,4.348226E0,4.6005597E0,8.918876E0,1.6918842E0,1.0548156E0,1.4987544E0,1.3324805E0,1.6485602E0,2.6996658E0],"tree_param":{"num_deleted":"0","num_feature":"11","num_nodes":"31","size_leaf_vector":"1"}},{"base_weights":[-9.079851E-3,-2.032593E-1,1.6958158E-2,-8.822897E-2,-5.390335E-3,7.655202E-2,-3.5745674E-3,-4.088739E-2,1.7859139E-1,-2.909643E-1,5.0116857E-3,1.1400907E-1,4.031805E-2,7.46301E-3,-1.5854341E-1,1.00070074E-1,-1.5173721E-1,-9.944791E-2,9.8499276E-2,6.0258947E-2,-7.217853E-2,-1.346281E-1,1.3257112E-2],"categories":[],"categories_nodes":[],"categories_segments":[],"categories_sizes":[],"default_left":[0,0,0,0,0,0,0,0,0,0,0,0,0,0,0,0,0,0,0,0,0,0,0],"id":32,"left_children":[1,3,5,-1,-1,-1,7,9,11,13,15,-1,17,-1,-1,19,21,-1,-1,-1,-1,-1,-1],"loss_changes":[1.9022547E-1,6.952949E-2,1.6475156E-1,0E0,0E0,0E0,2.2361936E-1,3.1399035E-1,1.4056678E-1,3.311708E-1,3.7262318E-1,0E0,5.840206E-1,0E0,0E0,5.817627E-1,5.699631E-1,0E0,0E0,0E0,0E0,0E0,0E0],"parents":[2147483647,0,0,1,1,2,2,6,6,7,7,8,8,9,9,10,10,12,12,15,15,16,16],"right_children":[2,4,6,-1,-1,-1,8,10,12,14,16,-1,18,-1,-1,20,22,-1,-1,-1,-1,-1,-1],"split_conditions":[5.6526715E-1,2.5355452E-1,-1.0602071E0,-8.822897E-2,-5.390335E-3,7.655202E-2,2.0911734E0,-6.117569E-1,-3.42155E-1,-3.5216618E-1,8.920381E-2,1.1400907E-1,-4.3225878E-1,7.46301E-3,-1.5854341E-1,2.4319011E-1,2.0066696E-1,-9.944791E-2,9.8499276E-2,6.0258947E-2,-7.217853E-2,-1.346281E-1,1.3257112E-2],"split_indices":[9,2,7,0,0,0,0,7,5,5,5,0,7,0,0,7,7,0,0,0,0,0,0],"split_type":[0,0,0,0,0,0,0,0,0,0,0,0,0,0,0,0,0,0,0,0,0,0,0],"sum_hessian":[3.5941624E1,3.444899E0,3.2496723E1,1.9176039E0,1.5272952E0,1.6719191E0,3.0824804E1,2.6228086E1,4.5967174E0,3.2393835E0,2.2988703E1,1.1593537E0,3.4373636E0,1.7746935E0,1.4646899E0,1.4535452E1,8.453252E0,1.4345111E0,2.0028524E0,1.15334215E1,3.0020304E0,2.8469224E0,5.606329E0],"tree_param":{"num_deleted":"0","num_feature":"11","num_nodes":"23","size_leaf_vector":"1"}},{"base_weights":[-1.1291865E-2,7.7925567E-3,-8.373918E-2,9.159612E-2,-5.9877384E-2,1.3819033E-1,-7.2831534E-2,-1.7784438E-1,7.2806E-2,2.5471407E-1,-8.452727E-2,-2.8875694E-1,1.7129718E-1,-3.0559257E-1,2.842483E-1,-7.632676E-3,4.2628956E-1,-3.55116E-1,8.313182E-2,-1.6969585E-1,-4.5136273E-2,1.1594811E-1,-3.506758E-2,-1.6771974E-1,5.6363206E-2,4.462558E-1,-4.545402E-2,-7.980242E-2,5.2969083E-2,1.359178E-2,1.4815995E-1,-1.723335E-1,-1.3116615E-2,5.31577E-2,-1.10295E-1,4.3718354E-3,1.7461275E-1],"categories":[],"categories_nodes":[],"categories_segments":[],"categories_sizes":[],"default_left":[0,0,0,0,0,0,0,0,0,0,0,0,0,0,0,0,0,0,0,0,0,0,0,0,0,0,0,0,0,0,0,0,0,0,0,0,0],"id":33,"left_children":[1,3,-1,5,7,9,-1,11,13,15,17,19,21,23,25,27,29,31,-1,-1,33,-1,-1,-1,-1,35,-1,-1,-1,-1,-1,-1,-1,-1,-1,-1,-1],"loss_changes":[1.8850543E-1,2.039748E-1,0E0,2.8331813E-1,3.255115E-1,4.032378E-1,0E0,4.700583E-1,8.95593E-1,4.4911802E-1,6.6623944E-1,5.5562466E-1,2.4649635E-1,6.185357E-1,5.619733E-1,2.8012252E-1,1.3226211E-1,2.3151779E-1,0E0,0E0,4.7168168E-1,0E0,0E0,0E0,0E0,3.055991E-1,0E0,0E0,0E0,0E0,0E0,0E0,0E0,0E0,0E0,0E0,0E0],"parents":[2147483647,0,0,1,1,3,3,4,4,5,5,7,7,8,8,9,9,10,10,11,11,12,12,13,13,14,14,15,15,16,16,17,17,20,20,25,25],"right_children":[2,4,-1,6,8,10,-1,12,14,16,18,20,22,24,26,28,30,32,-1,-1,34,-1,-1,-1,-1,36,-1,-1,-1,-1,-1,-1,-1,-1,-1,-1,-1],"split_conditions":[4.5847884E-1,-1.9272353E-1,-8.373918E-2,3.9783308E-1,2.5355452E-1,-2.0717095E-1,-7.2831534E-2,2.4597332E-1,-1.9735989E-1,-7.6712054E-1,-3.921612E-1,5.211855E-2,1.6506125E-1,2.965228E-1,1.2765088E0,4.347306E-1,-5.290303E-1,-1.420983E-1,8.313182E-2,-1.6969585E-1,8.104179E-1,1.1594811E-1,-3.506758E-2,-1.6771974E-1,5.6363206E-2,2.8597537E-2,-4.545402E-2,-7.980242E-2,5.2969083E-2,1.359178E-2,1.4815995E-1,-1.723335E-1,-1.3116615E-2,5.31577E-2,-1.10295E-1,4.3718354E-3,1.7461275E-1],"split_indices":[8,7,0,6,2,5,0,6,5,7,7,5,7,7,7,3,5,5,0,0,7,0,0,0,0,7,0,0,0,0,0,0,0,0,0,0,0],"split_type":[0,0,0,0,0,0,0,0,0,0,0,0,0,0,0,0,0,0,0,0,0,0,0,0,0,0,0,0,0,0,0,0,0,0,0,0,0],"sum_hessian":[3.5452816E1,3.4001034E1,1.4517839E0,1.5031815E1,1.8969217E1,1.3708277E1,1.3235384E0,9.861302E0,9.107916E0,8.905395E0,4.802882E0,7.6151366E0,2.2461655E0,3.1053262E0,6.002589E0,3.899063E0,5.0063314E0,2.7575746E0,2.0453076E0,2.9454825E0,4.669654E0,1.0906467E0,1.1555188E0,1.9637226E0,1.1416036E0,4.358211E0,1.6443784E0,1.4379166E0,2.4611466E0,1.0058737E0,4.000458E0,1.1223204E0,1.635254E0,3.0308747E0,1.6387792E0,1.3078165E0,3.0503945E0],"tree_param":{"num_deleted":"0","num_feature":"11","num_nodes":"37","size_leaf_vector":"1"}},{"base_weights":[-1.4349596E-2,-2.1242279E-1,1.2451295E-2,9.160295E-4,-2.8539255E-1,-7.6854646E-2,8.7164916E-2,-2.3801818E-2,-1.047269E-1,-2.5769169E-2,-1.1846805E-1,1.2843683E-1,-7.8853935E-2,-1.15361124E-1,1.4557399E-1,5.931648E-2,1.4735194E-1,-1.9149654E-2,-1.4112134E-1,1.3775967E-1,-5.320322E-2,-1.5299423E-1,2.1623582E-1,-4.2777658E-2,1.3997898E-1,-8.019467E-2,3.278534E-2,3.7151106E-2,-1.5812597E-1,2.3666194E-2,1.6548282E-1],"categories":[],"categories_nodes":[],"categories_segments":[],"categories_sizes":[],"default_left":[0,0,0,0,0,0,0,0,0,0,0,0,0,0,0,0,0,0,0,0,0,0,0,0,0,0,0,0,0,0,0],"id":34,"left_children":[1,3,5,-1,7,9,11,-1,-1,13,-1,15,-1,17,19,21,-1,23,-1,-1,25,27,29,-1,-1,-1,-1,-1,-1,-1,-1],"loss_changes":[1.9180433E-1,6.851567E-2,2.2242254E-1,0E0,1.462391E-2,2.3773414E-1,2.948236E-1,0E0,0E0,2.3503432E-1,0E0,3.930285E-1,0E0,3.2894033E-1,3.563006E-1,5.421504E-1,0E0,5.957804E-1,0E0,0E0,1.7374973E-1,7.984345E-1,3.8029173E-1,0E0,0E0,0E0,0E0,0E0,0E0,0E0,0E0],"parents":[2147483647,0,0,1,1,2,2,4,4,5,5,6,6,9,9,11,11,13,13,14,14,15,15,17,17,20,20,21,21,22,22],"right_children":[2,4,6,-1,8,10,12,-1,-1,14,-1,16,-1,18,20,22,-1,24,-1,-1,26,28,30,-1,-1,-1,-1,-1,-1,-1,-1],"split_conditions":[5.6526715E-1,-4.9787524E-1,7.771808E-1,9.160295E-4,-5.4623228E-2,4.1639027E-1,2.0076354E0,-2.3801818E-2,-1.047269E-1,-1.1974E-1,-1.1846805E-1,5.169709E-1,-7.8853935E-2,-1.7546889E-1,1.565685E-1,-4.7998932E-1,1.4735194E-1,-1.6414667E-2,-1.4112134E-1,1.3775967E-1,-5.446554E-3,-2.6155526E-2,4.757885E-1,-4.2777658E-2,1.3997898E-1,-8.019467E-2,3.278534E-2,3.7151106E-2,-1.5812597E-1,2.3666194E-2,1.6548282E-1],"split_indices":[9,5,1,0,6,6,5,0,0,5,0,5,0,5,5,6,0,6,0,0,7,7,7,0,0,0,0,0,0,0,0],"split_type":[0,0,0,0,0,0,0,0,0,0,0,0,0,0,0,0,0,0,0,0,0,0,0,0,0,0,0,0,0,0,0],"sum_hessian":[3.463305E1,3.30218E0,3.133087E1,1.0777603E0,2.2244196E0,1.4258675E1,1.7072193E1,1.0555154E0,1.1689042E0,1.3216742E1,1.0419339E0,1.5837723E1,1.2344707E0,8.893323E0,4.323418E0,1.4280131E1,1.5575919E0,7.8264165E0,1.0669063E0,1.1689558E0,3.1544623E0,6.079553E0,8.200578E0,6.803813E0,1.0226039E0,1.0826697E0,2.0717926E0,3.8784423E0,2.201111E0,6.6942463E0,1.5063316E0],"tree_param":{"num_deleted":"0","num_feature":"11","num_nodes":"31","size_leaf_vector":"1"}},{"base_weights":[-1.1433012E-2,3.714064E-2,-9.685638E-2,-7.811059E-2,1.5262844E-1,-1.8295844E-1,1.3342594E-2,-1.7501433E-1,2.3743162E-1,3.3775702E-1,-1.3663673E-1,-8.538878E-2,1.9231974E-1,4.6366397E-2,-2.664725E-1,-1.4775626E-2,1.1934055E-1,4.7227842E-1,5.0967317E-2,-4.02858E-1,7.7181675E-2,-1.9941373E-1,9.401727E-2,-7.3600195E-2,3.9431494E-1,-5.7898104E-2,1.0143093E-1,-1.9873992E-1,-8.860514E-2,1.9533338E-1,1.8119073E-1,-2.9049337E-2,5.0316036E-2,-2.2599898E-2,-1.7593989E-1,-4.3598335E-2,-1.4411424E-1,-1.6968781E-2,1.8848494E-1,8.059536E-2,-7.7356175E-2,1.3271856E-1,-4.1015238E-2,4.7862038E-2,-1.14765726E-1],"categories":[],"categories_nodes":[],"categories_segments":[],"categories_sizes":[],"default_left":[0,0,0,0,0,0,0,0,0,0,0,0,0,0,0,0,0,0,0,0,0,0,0,0,0,0,0,0,0,0,0,0,0,0,0,0,0,0,0,0,0,0,0,0,0],"id":35,"left_children":[1,3,5,7,9,-1,11,13,15,17,19,21,23,25,27,-1,-1,29,31,33,-1,35,-1,-1,37,-1,-1,-1,39,41,-1,-1,-1,-1,-1,43,-1,-1,-1,-1,-1,-1,-1,-1,-1],"loss_changes":[1.485051E-1,3.17874E-1,7.394869E-1,4.1357118E-1,6.7912376E-1,0E0,2.2189277E-1,2.1247023E-1,1.705226E-1,2.6509446E-1,6.620215E-1,4.347364E-1,4.8937708E-1,3.265046E-1,4.4437152E-1,0E0,0E0,6.369293E-2,7.688072E-2,1.7032647E-1,0E0,2.8451228E-1,0E0,0E0,3.9656943E-1,0E0,0E0,0E0,4.3708348E-1,3.1342706E-1,0E0,0E0,0E0,0E0,0E0,4.4579393E-1,0E0,0E0,0E0,0E0,0E0,0E0,0E0,0E0,0E0],"parents":[2147483647,0,0,1,1,2,2,3,3,4,4,6,6,7,7,8,8,9,9,10,10,11,11,12,12,13,13,14,14,17,17,18,18,19,19,21,21,24,24,28,28,29,29,35,35],"right_children":[2,4,6,8,10,-1,12,14,16,18,20,22,24,26,28,-1,-1,30,32,34,-1,36,-1,-1,38,-1,-1,-1,40,42,-1,-1,-1,-1,-1,44,-1,-1,-1,-1,-1,-1,-1,-1,-1],"split_conditions":[2.8252605E-2,-2.6502842E-2,1.2847801E0,1.2503933E0,1.2735105E-1,-1.8295844E-1,-4.7998932E-1,-3.7102056E-1,-3.122883E-1,-7.5614387E-1,6.192011E-1,6.432786E-1,-1.1950865E0,-4.995667E-1,-2.9910693E-1,-1.4775626E-2,1.1934055E-1,-3.7273595E-1,-2.608736E-1,4.644555E-2,7.7181675E-2,2.5914532E-1,9.401727E-2,-7.3600195E-2,-4.3735152E-1,-5.7898104E-2,1.0143093E-1,-1.9873992E-1,-1.5244319E-1,-7.670054E-1,1.8119073E-1,-2.9049337E-2,5.0316036E-2,-2.2599898E-2,-1.7593989E-1,-2.6155526E-2,-1.4411424E-1,-1.6968781E-2,1.8848494E-1,8.059536E-2,-7.7356175E-2,1.3271856E-1,-4.1015238E-2,4.7862038E-2,-1.14765726E-1],"split_indices":[10,10,10,2,7,0,6,5,5,2,7,5,8,5,5,0,0,7,5,5,0,2,0,0,2,0,0,0,5,7,0,0,0,0,0,7,0,0,0,0,0,0,0,0,0],"split_type":[0,0,0,0,0,0,0,0,0,0,0,0,0,0,0,0,0,0,0,0,0,0,0,0,0,0,0,0,0,0,0,0,0,0,0,0,0,0,0,0,0,0,0,0,0],"sum_hessian":[3.3923218E1,2.1986444E1,1.1936772E1,1.1166482E1,1.08199625E1,1.3089737E0,1.0627798E1,8.883647E0,2.282835E0,6.4953356E0,4.3246274E0,7.1863885E0,3.4414096E0,2.7412632E0,6.1423845E0,1.0674704E0,1.2153647E0,3.9811592E0,2.5141764E0,2.5670094E0,1.7576178E0,5.9772305E0,1.209158E0,1.0190114E0,2.4223983E0,1.6917257E0,1.0495373E0,1.0593685E0,5.083016E0,2.083287E0,1.8978721E0,1.1848699E0,1.3293066E0,1.4287183E0,1.138291E0,4.5880284E0,1.3892024E0,1.0866235E0,1.3357747E0,1.4451743E0,3.6378415E0,1.0039718E0,1.0793153E0,3.199721E0,1.3883073E0],"tree_param":{"num_deleted":"0","num_feature":"11","num_nodes":"45","size_leaf_vector":"1"}},{"base_weights":[-9.917133E-3,-1.949304E-1,1.5258138E-2,-3.0812607E-3,-2.5296518E-1,-1.7252697E-2,1.5230882E-1,-1.6956171E-2,-9.7213976E-2,-5.9688404E-2,1.3198635E-1,-4.7546923E-2,7.725372E-2,-6.226818E-3,-2.67509E-1,-2.9236354E-2,1.358133E-1,-1.501552E-1,2.2573522E-1,2.2368543E-2,-1.2217412E-1,-2.892202E-1,9.867859E-2,-1.44185955E-2,-1.3314685E-1,1.7936571E-1,-1.6143803E-2,-5.533185E-3,-1.3886186E-1],"categories":[],"categories_nodes":[],"categories_segments":[],"categories_sizes":[],"default_left":[0,0,0,0,0,0,0,0,0,0,0,0,0,0,0,0,0,0,0,0,0,0,0,0,0,0,0,0,0],"id":36,"left_children":[1,3,5,-1,7,9,11,-1,-1,13,15,-1,-1,17,19,21,-1,23,25,-1,-1,27,-1,-1,-1,-1,-1,-1,-1],"loss_changes":[1.6064495E-1,4.16307E-2,1.3952291E-1,0E0,2.494222E-2,1.7083704E-1,2.3675449E-1,0E0,0E0,2.285783E-1,3.2390833E-1,0E0,0E0,6.1837757E-1,2.3191041E-1,5.54913E-1,0E0,3.2057807E-1,7.711093E-1,0E0,0E0,1.5100849E-1,0E0,0E0,0E0,0E0,0E0,0E0,0E0],"parents":[2147483647,0,0,1,1,2,2,4,4,5,5,6,6,9,9,10,10,13,13,14,14,15,15,17,17,18,18,21,21],"right_children":[2,4,6,-1,8,10,12,-1,-1,14,16,-1,-1,18,20,22,-1,24,26,-1,-1,28,-1,-1,-1,-1,-1,-1,-1],"split_conditions":[5.6526715E-1,-4.9787524E-1,2.0911734E0,-3.0812607E-3,-5.4623228E-2,1.2776129E0,-9.9419045E-1,-1.6956171E-2,-9.7213976E-2,8.7740314E-1,1.6992047E-1,-4.7546923E-2,7.725372E-2,-1.1974E-1,1.4953642E-1,-4.7998932E-1,1.358133E-1,-1.9439498E-1,8.920381E-2,2.2368543E-2,-1.2217412E-1,2.8252605E-2,9.867859E-2,-1.44185955E-2,-1.3314685E-1,1.7936571E-1,-1.6143803E-2,-5.533185E-3,-1.3886186E-1],"split_indices":[9,5,0,0,6,2,7,0,0,7,5,0,0,5,5,6,0,5,5,0,0,10,0,0,0,0,0,0,0],"split_type":[0,0,0,0,0,0,0,0,0,0,0,0,0,0,0,0,0,0,0,0,0,0,0,0,0,0,0,0,0],"sum_hessian":[3.2851185E1,3.1271083E0,2.9724075E1,1.0292233E0,2.097885E0,2.4731455E1,4.992622E0,1.0343763E0,1.0635086E0,1.9723251E1,5.008203E0,1.1345024E0,3.8581192E0,1.6506847E1,3.2164035E0,3.937655E0,1.0705483E0,1.0404014E1,6.1028347E0,1.0681211E0,2.1482823E0,2.3930724E0,1.5445826E0,8.583596E0,1.8204168E0,2.1293545E0,3.9734805E0,1.3672826E0,1.0257896E0],"tree_param":{"num_deleted":"0","num_feature":"11","num_nodes":"29","size_leaf_vector":"1"}},{"base_weights":[-8.843186E-3,-3.0767364E-2,1.8226428E-1,4.4474048E-3,-1.4719465E-1,7.064344E-2,9.69638E-3,3.5984103E-2,-1.2200172E-1,1.2694218E-2,9.344472E-2,4.0543094E-2,-1.850779E-1,2.4707746E-2,-7.7077225E-2,3.2318976E-2,-1.1487264E-1],"categories":[],"categories_nodes":[],"categories_segments":[],"categories_sizes":[],"default_left":[0,0,0,0,0,0,0,0,0,0,0,0,0,0,0,0,0],"id":37,"left_children":[1,3,5,7,-1,-1,-1,9,-1,11,-1,13,15,-1,-1,-1,-1],"loss_changes":[1.4482217E-1,4.9874902E-1,2.0825759E-2,3.9675596E-1,0E0,0E0,0E0,1.7757343E-1,0E0,1.569214E-1,0E0,3.2716304E-1,2.4562982E-1,0E0,0E0,0E0,0E0],"parents":[2147483647,0,0,1,1,2,2,3,3,7,7,9,9,11,11,12,12],"right_children":[2,4,6,8,-1,-1,-1,10,-1,12,-1,14,16,-1,-1,-1,-1],"split_conditions":[1.3005124E0,8.256489E-1,2.4636445E0,4.5847884E-1,-1.4719465E-1,7.064344E-2,9.69638E-3,5.169709E-1,-1.2200172E-1,-3.9563236E-1,9.344472E-2,1.4953642E-1,-7.5614387E-1,2.4707746E-2,-7.7077225E-2,3.2318976E-2,-1.1487264E-1],"split_indices":[5,5,5,8,0,0,0,5,0,4,0,5,2,0,0,0,0],"split_type":[0,0,0,0,0,0,0,0,0,0,0,0,0,0,0,0,0],"sum_hessian":[3.2226387E1,2.9662464E1,2.5639243E0,2.8472548E1,1.1899157E0,1.4713132E0,1.092611E0,2.729151E1,1.1810385E0,2.6128735E1,1.1627754E0,2.3600481E1,2.5282524E0,2.1325771E1,2.2747104E0,1.2030592E0,1.3251932E0],"tree_param":{"num_deleted":"0","num_feature":"11","num_nodes":"17","size_leaf_vector":"1"}},{"base_weights":[-1.3419946E-2,1.8603375E-2,-1.5218136E-1,-4.320604E-3,8.8387445E-2,6.077891E-2,-3.5202983E-1,-1.5232888E-1,7.9348825E-2,-6.3356005E-2,9.3183234E-2,-1.331612E-1,-2.0282108E-2,-3.5919404E-1,8.7234825E-3,2.7292073E-1,1.676326E-2,-8.8127635E-2,-1.7454006E-1,-1.6921958E-1,1.0039095E-1,4.1366357E-1,-1.356039E-2,-8.986975E-2,1.0563682E-1,-8.243416E-2,4.5319594E-2,6.706968E-2,-1.0086914E-1,2.6642459E-2,1.6046484E-1,5.0139846E-3,1.48422E-1],"categories":[],"categories_nodes":[],"categories_segments":[],"categories_sizes":[],"default_left":[0,0,0,0,0,0,0,0,0,0,0,0,0,